[ 9.06003432e-03  4.77263340e-03  1.05979148e-03  9.26007840e-03
  5.33216373e-03  2.43675581e-05  9.86188745e-03  4.60996811e-03
  2.71748502e-03  5.73481553e-03  2.28277472e-03  6.67718967e-03
  9.86233843e-03  2.06795224e-03  8.47268773e-04  2.12781338e-03
  8.15364616e-03  8.01644144e-03  4.90972817e-03  9.35234917e-03
  8.64189195e-03  2.35507309e-03  9.86244053e-03  9.11143535e-03
  2.34104693e-03  8.83091038e-03  5.71065182e-03  5.98848997e-03
  9.82952180e-03  2.99823693e-03  9.33924546e-04  7.57480101e-03
  8.04958176e-03  3.94885216e-04  5.69719388e-03  8.14005106e-05
  9.65636669e-03  8.49282935e-03  4.45251772e-03  3.83604898e-03
  7.68560687e-03  7.97789544e-03  1.08491763e-03  8.06405320e-03
  4.12874104e-03  4.79016307e-03  8.83769359e-03  8.81545115e-04
  4.25094777e-03  2.38510236e-03  6.37866103e-03  8.97103392e-03
  1.78228431e-03  1.47577044e-03  7.03795563e-03  6.98769730e-03
  3.27811338e-03  3.98434441e-03  2.88692676e-03  6.80056370e-04
  4.44165966e-03  2.25789366e-04  6.13938555e-04  1.05843354e-03
  7.18076526e-03  8.26085659e-03  5.61631322e-03 -1.62435071e-03
  4.35520268e-03 -4.22272326e-03 -6.17356988e-03 -8.53855040e-03
 -4.92924230e-03  4.18006616e-03  9.89038920e-03 -6.01045133e-03
 -1.85298006e-03  3.51072103e-03  1.55547625e-03 -1.08956613e-03
  7.87669236e-03  2.88322956e-03  2.73057236e-03  2.90593271e-03
  6.56417855e-03  9.18916308e-03  4.46620149e-03  6.06736185e-03
  4.36516155e-03  4.98820304e-03  1.68320221e-03 -4.22639035e-03
 -3.90445910e-03 -8.84804759e-03 -1.15083678e-02 -1.50426524e-02
 -1.07642545e-02  8.04294746e-03 -1.97530257e-02 -1.73910236e-02
 -1.28210998e-02  2.76882185e-02  3.09274120e-02 -2.85718603e-04
  4.07196286e-03  2.14864487e-02  1.02421637e-02  9.79085147e-04
  4.36331715e-04  9.16210765e-03  9.52027263e-03  9.67983015e-03
  2.17704819e-03  9.14544327e-03  6.58155407e-03  7.83591884e-03
  3.73179291e-04 -2.00244567e-02 -2.14745411e-02 -1.80907338e-02
 -4.32080827e-02 -3.66890673e-02 -3.43371649e-02 -1.00658350e-02
 -4.82127452e-03 -2.69077237e-02  1.65077733e-02  4.32149551e-02
  4.11905600e-02  4.95454018e-02  3.66136896e-02  2.16373948e-02
  2.08772356e-02  1.42506859e-02 -5.58542965e-04  1.89195067e-02
  3.97691259e-02  1.67348467e-02  6.85319970e-03  1.20199194e-03
  4.84234708e-03  6.17481338e-03  9.14421158e-03  9.96752921e-04
 -1.44031173e-02 -4.67961973e-02 -5.09189424e-02 -4.94931738e-02
 -6.14186565e-02 -4.94047050e-02 -2.18479353e-02  3.23482554e-02
  7.67755877e-03  2.51128843e-02  5.28324895e-02  6.28017961e-02
  7.20566002e-02  1.15024792e-01  7.85723330e-02  6.95878970e-02
  9.09382328e-02  5.60246469e-02  2.20276635e-02 -8.89525482e-03
  1.84869859e-02  3.75923910e-02  1.70334857e-02  5.98583422e-03
  8.75723755e-03  1.57835010e-03  6.51028374e-03 -5.43587690e-03
 -2.31101237e-02 -3.84909483e-02 -5.63260353e-02 -3.71625445e-02
  5.14626210e-03 -1.60221367e-02 -7.67447995e-04  1.28009497e-02
  1.87896510e-02  1.86040691e-02  6.33716716e-02  1.12563494e-01
  7.01615230e-02  8.70874382e-02  8.73606179e-02  1.36014763e-01
  8.93411471e-02  4.44328667e-02  4.52909737e-02  1.58574111e-02
  3.56740045e-02  5.19402202e-02  1.15246116e-02 -1.38426704e-03
  1.93776580e-03  5.27897021e-04 -5.63021306e-05 -4.34945671e-03
 -2.28856833e-02 -2.29742070e-02 -3.70777483e-02 -1.61552566e-02
  4.96478441e-02 -4.66449168e-03  3.64304093e-02  1.44622062e-02
 -1.25509346e-02  2.04430036e-02  3.66648031e-02  9.30082884e-02
  7.48120972e-02  9.50691771e-02  1.44711078e-01  9.58476630e-02
  8.17487396e-02  9.13879295e-02  8.84844199e-02  4.04767757e-02
  3.55694314e-02  3.91175056e-02  2.47183137e-03  6.26036404e-03
  4.09402731e-03  2.96488179e-03 -4.10886359e-03 -5.82296559e-03
 -2.97496646e-02 -3.29775328e-02  1.30380834e-03  1.20732064e-02
  4.72632464e-02  3.89783974e-02  4.69099396e-02  5.21939125e-02
  1.21860622e-03  8.59778828e-03  8.25616084e-03 -1.81747160e-02
  9.66113764e-02  8.04532595e-02  5.86924147e-02  6.00375680e-02
  1.10312297e-01  7.85421931e-02  5.34651217e-02  9.26608882e-02
  7.60365539e-02  4.46334176e-02  1.31186287e-02  5.11321104e-03
  3.99444417e-03  5.38409492e-03  1.43856133e-03 -3.63567894e-03
 -2.48366424e-02 -3.31879479e-02 -5.03617223e-04  1.20893642e-02
  2.23775764e-02  2.50611261e-02  8.11469030e-02  3.70975316e-02
 -2.31572541e-02 -2.48803437e-02 -7.51223073e-02 -9.96843059e-02
 -3.45406263e-02 -1.91372414e-03 -1.16778462e-02  2.61987294e-02
  2.97693259e-02  2.91124691e-02  5.31663140e-02  9.30045846e-02
  1.15843711e-01  8.20224808e-02  2.65218983e-02  5.10490050e-03
  7.54020581e-04  3.52130721e-03  3.37284876e-03 -7.69015658e-04
  4.79179756e-03  4.69986514e-03  2.66793003e-02  3.24718140e-02
  3.12018553e-02  5.30063337e-02  7.55533195e-02  4.28031034e-02
 -5.25943873e-03 -3.68889618e-02 -4.52258967e-02 -8.85898416e-02
 -2.65940581e-02 -4.41220234e-02  4.47191834e-02  8.05495653e-03
  3.24397250e-02  5.99944866e-02  5.01216425e-02  8.91792919e-02
  1.14157240e-01  7.11822498e-02  2.66329237e-02  8.03527080e-03
  7.59517260e-03  8.64759251e-03 -3.23071359e-03  4.06908333e-03
  2.62032496e-02 -1.61271772e-03  2.68459398e-02  2.17196012e-02
  5.56461252e-03  2.03512398e-02  5.47583636e-03  3.79371962e-02
  4.43385632e-03  2.43925390e-02  2.04872163e-02 -2.98253437e-02
 -1.69248638e-02 -7.50108981e-02 -4.93795712e-02 -1.98898097e-02
 -5.34367182e-02  4.05589868e-03  1.20234398e-02  3.36678713e-02
  8.32575365e-02  5.95945630e-02  3.06799185e-02  8.13863977e-03
  3.75872023e-03  8.90567730e-03  2.82288506e-03  2.09042036e-02
  7.59861623e-03 -3.88472080e-03  1.05246484e-02  1.27177552e-02
 -5.35761209e-03  3.16619217e-02  9.08520665e-03  5.76264785e-02
  7.74201045e-03  6.65000009e-02  5.60452828e-02  1.64535282e-03
 -9.50887177e-02 -6.19257912e-02 -6.77152759e-02 -4.69649986e-02
 -7.08562028e-02 -2.51865435e-02 -2.36162027e-02 -1.77912667e-04
  1.76532942e-02  3.38899052e-02  1.51387082e-02  7.03653455e-03
  7.40871991e-03  5.69412344e-03  5.57445800e-03  1.46829501e-02
  5.26536274e-03  1.06545198e-03  7.26170986e-03  7.10855198e-03
 -1.87846002e-02  3.62891790e-02  2.57635468e-02  6.32625848e-02
  4.74939064e-02  3.69552497e-02  8.58173212e-03 -2.67083925e-02
 -1.03311534e-01 -1.14530995e-01 -1.07524102e-01 -7.30547884e-02
 -6.15567404e-02 -4.18270649e-02 -2.79498999e-04 -2.22719651e-02
 -5.21413466e-03  2.27769751e-02  9.68189358e-03  6.63812506e-03
  6.12976367e-03  3.63105165e-03 -4.09639348e-04 -4.78023771e-03
  4.80733405e-03 -3.07205457e-03  2.11972680e-02 -8.80789139e-03
 -2.83106159e-02 -2.73237799e-02  3.32676432e-02  6.13149683e-02
  1.99534522e-02  2.84320215e-02  2.63270740e-03 -5.08348813e-02
 -7.28288680e-02 -6.43397294e-02 -7.14000306e-02 -1.22343967e-01
 -5.99513953e-02 -1.64300459e-02 -1.94390534e-02 -2.63425991e-02
  3.46984172e-03  2.33518115e-03  3.25707757e-03  9.79906340e-03
  1.24038158e-03  2.41754463e-03  3.45242454e-03 -4.06714577e-03
 -2.05123013e-04 -1.88489240e-02  1.80972226e-02  2.04199978e-02
  5.78015149e-04  3.24229681e-02  3.90517631e-02  2.70176579e-02
  5.56003363e-02  1.23139958e-02  1.71555150e-02 -2.29686657e-02
 -4.41700700e-03 -3.78894718e-02 -7.98860884e-03 -1.02697921e-01
 -7.41881743e-02 -2.71136299e-02 -5.93142714e-02 -1.39764305e-02
  2.45242269e-02  9.22242803e-03  6.19451512e-03  6.66442856e-03
  3.55662500e-03 -3.50801787e-04  4.81272021e-03 -1.80238503e-04
  3.90914475e-03 -2.98222491e-02 -2.56685963e-02  3.79980626e-03
  2.22791205e-02  1.13657049e-02  5.62489337e-02  5.43545811e-02
  4.30052752e-02 -1.95947637e-02 -9.77844581e-03 -9.87724948e-03
 -1.17372485e-02 -1.37671172e-02 -3.43675985e-02 -5.06771185e-02
 -5.64401086e-02 -5.67150111e-02 -3.56552380e-02 -4.49691182e-03
  7.36443204e-03  7.20584792e-03 -1.15844738e-03  1.75733216e-03
  2.23169794e-03  4.59016935e-03  9.50069676e-04  1.19767024e-02
 -4.99558646e-03  1.09596268e-02  2.71748018e-02 -1.46023490e-02
 -5.34234240e-03  4.01718170e-03  1.72469453e-02 -4.68376781e-03
 -4.87905367e-02 -5.55933264e-02 -1.06957035e-02 -1.17995526e-02
  7.64803730e-04 -8.34067262e-03 -9.72908938e-03 -6.66152330e-03
 -1.50347632e-02 -5.24388838e-02 -2.46569324e-02 -1.01241374e-02
 -1.97624515e-02 -1.83706893e-02  2.39939541e-03  6.82818900e-03
  6.26982380e-03  8.03549130e-03 -2.37384994e-04 -1.61986856e-04
  1.77414119e-02  4.73427076e-02  7.08852962e-02  3.89415161e-02
  2.37130727e-02  9.84551236e-04 -2.33498307e-02 -8.61567427e-02
 -7.73580017e-02 -8.48797922e-02 -4.86054124e-02 -3.79179583e-03
 -7.96772950e-03 -2.37198173e-02 -2.21749758e-02  1.60124811e-02
  8.12978453e-03 -4.48800265e-02 -1.29473614e-02 -7.73144418e-03
 -1.28283478e-03 -1.20301239e-02  1.29631827e-03  5.88125575e-03
  7.61557354e-03  6.00117648e-03  5.84521929e-03 -8.94900838e-03
  2.74465716e-02  4.79337871e-02  8.42812180e-02  4.81054263e-02
  6.97209851e-02 -3.10423328e-03 -4.80681748e-02 -9.26694162e-02
 -5.74899431e-02 -7.08649356e-02 -7.98029763e-02 -2.44026063e-02
 -4.78188290e-02  5.40948973e-03  1.87320250e-02  2.95642481e-02
  3.05217532e-02 -1.27831834e-02  2.60783864e-02  1.31299994e-02
  4.21892244e-03  3.57617163e-05 -1.80635113e-04  7.40100586e-03
  1.68096884e-03  6.61059462e-04  7.89182989e-03  1.33698597e-03
  3.38688668e-02  8.55550040e-02  6.98129337e-02  4.72682539e-02
  4.71171781e-02  1.88908956e-02 -2.27184453e-02 -2.54297608e-02
 -1.30775334e-02 -2.95788658e-02 -6.01252488e-02  1.82745292e-02
 -2.33377928e-02  3.86072715e-02 -5.90241643e-03  2.02077215e-02
  2.61429447e-02  2.00608980e-02  3.13359330e-02  2.09461269e-02
 -1.80670868e-03  6.74697248e-03 -1.27118100e-03  3.34558427e-03
  7.24410729e-03  8.36386547e-03  5.98911813e-03  4.05287998e-03
  2.37747946e-02  3.73711693e-02  6.66871300e-02  7.37144149e-02
  1.35872854e-02  5.47045172e-02 -5.19694306e-03  5.20365854e-02
  4.52918930e-03  1.71859528e-02  2.32965623e-02  1.54171815e-02
  9.06546803e-05  5.51352891e-02  3.00157842e-04  5.82389470e-03
  1.34389457e-02  5.53732949e-03  4.05445352e-02  3.90993257e-02
 -3.42532615e-03  1.01458784e-02  3.83953428e-03  4.43852480e-03
  3.29549217e-03  7.56456419e-03  1.44665863e-03  1.25121746e-02
  2.25026564e-02 -1.68225094e-02  1.70856904e-02  7.43652661e-02
  4.65263303e-02  7.03769549e-02  6.16691792e-02  9.73359427e-02
  8.81784604e-02  1.01842619e-01  6.85977841e-02  6.77858062e-02
  7.37139228e-02  9.16335895e-02  4.60604901e-02  1.72508087e-02
 -1.04204191e-02 -1.45133914e-02  2.59640959e-02  5.25613483e-02
  1.06773698e-02  1.72154235e-02  9.08684050e-03  2.40363261e-03
  8.91544102e-03  9.46806578e-03  1.98764873e-03  1.33143337e-02
  9.66184572e-03 -9.81206126e-05 -3.34810607e-02  1.85523406e-02
  6.25651027e-02  6.16919265e-02  8.31450636e-02  7.17010125e-02
  7.28909525e-02  9.01120047e-02  6.81611024e-02  7.19979516e-02
  1.00694348e-01  7.32324091e-02  4.51230867e-02  1.57997662e-02
  3.85499728e-02  2.34410633e-02  4.00555993e-02  4.20152921e-02
  1.79491376e-02  1.07368576e-02  4.91594385e-03  3.28582003e-03
  5.91500308e-04  6.86608582e-03  1.20252492e-03  4.55255141e-03
 -9.41966252e-03 -3.49829954e-02 -3.43488863e-02 -1.69935747e-02
  4.04811257e-02  5.87410084e-02  4.58728779e-02  3.93058452e-02
  9.00170136e-02  6.31835661e-02  5.72755087e-02  1.02610209e-01
  9.44645882e-02  5.57419715e-02  8.08092491e-02  5.71166793e-02
  4.11816971e-02  1.46232287e-02  8.28728644e-03  1.19559860e-02
  1.94914141e-02  4.44503227e-03  5.23102152e-03  1.48067391e-03
  4.45069484e-03  9.55397378e-03  6.21367773e-03  7.52678301e-03
 -7.86754498e-03 -1.84120543e-02 -1.52051403e-02 -2.32287426e-02
 -2.49099866e-02 -4.05799960e-03  1.06889284e-02  1.71822298e-02
  2.93368900e-03  2.29389969e-02  3.17392188e-02  6.56961623e-02
  7.01775004e-02  7.35807413e-02  4.01145093e-02  5.34421739e-02
  3.13424469e-02  2.24931681e-02  2.00469437e-02  1.08578027e-02
  1.06667227e-02  3.87396022e-03  4.83948578e-03  9.42904107e-03
  1.28457201e-03  4.60289537e-03  8.05068722e-03  7.22862200e-05
  8.45911459e-03 -3.31185364e-04 -4.95230300e-03 -7.43646627e-03
 -1.01203941e-02 -1.11993431e-02 -4.11473525e-03  2.67415930e-02
  2.55282445e-02  1.37749798e-02  4.72593912e-03  1.16235145e-02
  1.08027889e-02  1.33460567e-02  1.19412762e-02  1.50566633e-02
  1.36191250e-02 -6.54080847e-04  4.84054036e-03  4.18812594e-04
  5.13224736e-03  6.57324915e-03  2.57455355e-03  9.98252152e-03
  9.93169069e-04  3.53066414e-03  5.76071180e-03  5.87462425e-04
  3.38928586e-04  9.45025114e-03  6.23397755e-03  2.70508359e-04
  3.75317268e-03 -3.95733242e-04  4.13824062e-03  7.30073457e-03
  1.15616843e-03 -2.83654337e-03 -7.34620518e-04  3.39538061e-05
 -1.75329445e-03  1.59347379e-03  5.51720753e-03  7.38544160e-03
 -1.12320813e-03  5.17426379e-03  2.76698710e-03  7.19952446e-03
  8.57380740e-03  3.84217314e-03  7.49080283e-03  1.98153088e-03]
[ 3.95048497e-03  3.68303298e-03  6.62671196e-03  4.70372047e-03
  4.67514965e-03  9.08990791e-03  7.94139324e-03  8.43567215e-03
  2.72983450e-03  2.75847933e-03  2.43771571e-03  9.90836482e-03
  7.64119690e-03  6.81429402e-03  2.75704483e-03  5.86258355e-03
  7.58142320e-04  1.33928264e-04  8.29694347e-03  1.88732364e-03
  7.77337340e-03  4.61894704e-03  8.20783507e-03  1.77879093e-03
  6.62507443e-03  2.94599606e-03  6.55896868e-03  1.45877558e-03
  1.82800012e-03  3.85895649e-03  1.82236885e-03  4.87230902e-03
  1.26529904e-03  2.72498208e-03  5.44777913e-04  5.14158425e-03
  8.27403343e-03  4.17197304e-03  8.16402080e-03  2.41813373e-03
  6.49346128e-03  8.04319759e-03  2.40607374e-03  2.58250076e-03
 -2.50405016e-05  7.73367165e-03  7.12583446e-03  4.31073005e-03
  4.51244680e-03  8.91102605e-03  6.42990629e-04  1.55731745e-03
  4.82609390e-03  2.26793486e-03  6.33957534e-03  7.44528153e-03
  4.43733075e-03  1.50883480e-03  6.74153379e-03  6.09603958e-03
  3.07895468e-03  3.67369430e-03  3.90113223e-03  3.98651266e-03
  9.48642262e-03  8.79392941e-04  4.06531831e-03  1.16217061e-02
  1.58493787e-02  1.12992472e-02  9.28262815e-03  9.07738820e-03
  6.02046937e-03  1.49244478e-02  3.43628049e-02  2.15421700e-02
  1.22796917e-02  1.47296909e-02  1.15983321e-02  7.23298891e-03
  3.22296303e-03  2.29711535e-03  9.31903517e-03  4.87230276e-04
  9.78513064e-03  5.02115153e-03  9.01640988e-03  4.43622955e-04
  6.87474993e-03  2.38933834e-03 -3.26170822e-03 -6.60153656e-03
 -1.76568612e-02 -1.58516952e-02 -2.84839435e-02 -3.48329472e-02
 -1.78702483e-02 -2.09304365e-02  6.96600767e-03  3.75921955e-02
 -1.29790163e-04 -3.57188082e-03  2.02595829e-02  3.29209116e-03
  3.47786172e-03  3.91073594e-02  3.05616349e-02  1.74570417e-02
  4.08742152e-03  8.53373665e-03  3.76726807e-03  2.35331402e-03
  9.80931951e-03  1.34608434e-03  4.76134547e-03  2.82855650e-03
 -1.87868188e-03 -2.28656566e-02 -4.29234839e-02 -6.37899182e-02
 -8.92225783e-02 -6.09114849e-02 -7.90503271e-02 -3.61676872e-02
  1.81957284e-02  2.38576788e-02  9.77791318e-02  4.27820528e-02
 -1.75775406e-03 -2.65919078e-02 -2.00982198e-02 -2.19087582e-02
  1.73776883e-03  5.53001304e-02  4.33573558e-02  6.27604179e-02
  4.96110205e-02  2.71765026e-02  8.26181139e-03  7.57456429e-03
  9.81093223e-03  6.81953753e-03  2.53998170e-03 -7.83090941e-05
 -2.48818332e-02 -6.90407389e-02 -1.13376142e-01 -1.39343191e-01
 -1.23752494e-01 -1.18472711e-01 -8.93403810e-02  3.66908574e-02
  1.00016960e-01  1.75541459e-01  8.94241900e-02 -9.15084508e-02
 -1.13853402e-01 -6.05288426e-02 -7.89965986e-02 -8.48998884e-02
 -2.17278495e-02  3.79999371e-02  1.13317314e-02  1.14104546e-02
  5.27712863e-02  3.92160514e-02  1.31002774e-02  2.91965738e-03
  3.03148183e-03  2.24728128e-03  4.99237864e-03 -1.01508202e-02
 -4.08270482e-02 -4.89121877e-02 -1.20293115e-01 -1.16402399e-01
 -9.43095340e-02 -1.63716830e-01 -4.85965376e-02  1.12632556e-01
  2.16830204e-01  1.84599580e-01  5.74538930e-02 -1.62335135e-01
 -2.36127305e-01 -1.13544980e-01 -9.14169754e-02  2.21760889e-02
 -4.75002518e-02 -3.46445391e-02 -9.96523125e-03  5.77225974e-03
  4.63013912e-02  5.11325143e-02  1.34158516e-02  4.55996100e-03
  9.52129976e-03  4.31205166e-03  4.65717121e-03 -7.29349359e-03
 -3.13896498e-02 -4.49699831e-02 -5.83073722e-02 -1.07557071e-01
 -1.40523676e-01 -7.42297249e-02  9.88742764e-02  1.99919267e-01
  1.71804152e-01  7.96679280e-02 -9.44888338e-02 -1.93333852e-01
 -2.42981876e-01 -5.54209297e-02  5.10350788e-02 -1.90628452e-03
 -6.27068469e-02 -4.73893353e-02  1.22392931e-02  5.32596058e-02
  7.47391583e-02  5.18490923e-02  1.77886543e-02  6.38010447e-03
  7.82033578e-03  3.43315662e-03 -9.07218611e-04 -1.18500479e-02
 -3.94649799e-02 -6.18387644e-02 -2.23740697e-02 -9.28002324e-02
 -1.68752085e-01 -5.64783843e-02  6.08553215e-02  2.70145363e-01
  2.69561398e-01  8.33191425e-02 -1.55389266e-01 -2.27177973e-01
 -1.56586757e-01 -9.33850642e-03  3.63761077e-02 -1.42706300e-02
  4.35048300e-02 -1.16858628e-02 -1.46439849e-02  7.64882676e-02
  1.25874940e-01  7.33284755e-02  2.21570084e-02  1.12516838e-02
  4.01064273e-04  2.16630171e-03  2.03874988e-03 -3.04091220e-03
 -3.00378925e-02 -6.13791716e-02 -3.06275773e-02 -1.14249763e-01
 -1.81151452e-01 -1.16198145e-01  1.71264177e-02  2.05396724e-01
  2.35467255e-01  1.58670108e-01 -2.80599589e-02 -2.39714716e-01
 -1.58028117e-01  2.52349102e-02  7.58636900e-02  1.63328481e-02
 -2.97248897e-02  2.76079588e-02 -1.42698931e-02  9.56500166e-02
  1.53622576e-01  9.95727204e-02  2.90468231e-02  2.49072418e-03
  2.27945792e-03  7.89104980e-03  5.05519782e-03 -3.12672564e-03
 -2.78573761e-03 -2.00069418e-02 -3.66619492e-02 -5.74762408e-02
 -9.28264455e-02 -5.91006358e-02  2.07587654e-02  1.27205643e-01
  2.71758819e-01  1.78745048e-01  2.40290705e-02 -1.52345089e-01
 -1.55079806e-01  2.77808671e-02  1.01564946e-01 -6.96144722e-03
  8.28490195e-03  7.59427301e-02  6.49935371e-02  7.85472422e-02
  1.30186373e-01  8.34228311e-02  2.78369217e-02  2.10539784e-03
  7.87095066e-03  4.50156049e-03  1.72758143e-03 -1.22083340e-02
 -3.21680279e-02 -2.31674777e-02 -6.72164545e-03  1.70463245e-02
 -7.41877181e-02 -3.94274406e-02 -3.46260878e-02  4.62165322e-02
  1.99739786e-01  1.73020062e-01  5.32645992e-02 -1.09380652e-01
 -8.47618763e-02  3.54121527e-02  6.55012237e-02  5.14965874e-02
 -5.60274570e-03  7.43485135e-02  1.14240446e-01  1.18470287e-01
  1.33596397e-01  6.23257458e-02  3.07520076e-02  3.96527162e-04
  8.21565069e-04  2.73651807e-03  1.81501454e-04 -4.39189718e-03
 -3.91500477e-02 -2.62752203e-02 -2.65371376e-03  1.68858521e-03
 -5.92600977e-02 -4.90858132e-02 -5.60203836e-02  2.65148172e-02
  1.51321949e-01  2.40187162e-01  9.99679437e-02 -3.72122504e-02
 -1.07121552e-01  1.84316600e-02  6.45432499e-02  9.43227926e-02
  3.11559762e-02  5.55769725e-02  8.30420088e-02  9.84186765e-02
  7.15509136e-02  3.14355753e-02  1.08675157e-02 -2.39273715e-03
  1.51880393e-03  5.64813539e-03  3.68633932e-03 -4.23840145e-03
 -2.40659768e-02 -1.78204325e-02 -3.10663229e-02 -3.77768870e-02
 -6.73595041e-02  4.50972823e-03  6.78031882e-03  1.50301051e-02
  8.04884819e-02  1.04328647e-01  5.83590304e-02  5.27999467e-02
 -6.90546541e-02 -2.99942409e-02 -2.73476968e-02 -8.66009475e-04
  3.91654652e-02 -1.59957308e-02  1.60639349e-02  3.24090072e-02
  1.79085271e-02  1.19974184e-02  9.86465862e-03 -2.25438000e-04
  6.60458150e-03  3.03045471e-03 -7.10227628e-04 -1.10750171e-03
 -1.51090949e-02 -1.87598181e-02 -2.78478907e-02  9.17401417e-03
 -2.09394993e-02 -1.07990918e-01  2.12313628e-02  4.72703106e-02
  2.81877391e-02  1.00951067e-01  6.11144693e-02 -4.03941345e-02
  1.37756363e-02  2.93880151e-02 -6.57249748e-02 -5.98981764e-02
  7.61716668e-04 -8.39423798e-03  9.21870439e-03  8.16752348e-04
 -2.04113538e-03 -6.37756380e-03 -7.96916782e-03  9.20154542e-03
  3.15862818e-03  5.05946389e-03  5.97800492e-04 -4.26790364e-03
  2.43557025e-03 -4.76734776e-02 -4.74621428e-02 -1.18819922e-02
 -1.31773732e-02 -9.09454264e-03  1.40689392e-02  3.88925877e-02
  7.81792274e-02  6.67153381e-02  5.10852372e-03 -6.16206290e-02
 -3.51301140e-02  8.24491122e-03  1.16473768e-02 -1.23923084e-01
 -7.05783612e-02 -2.70617363e-02 -6.09426498e-02 -4.47523553e-03
 -1.76810864e-03 -1.17885093e-02 -1.68863363e-02  2.81246795e-03
  2.48272628e-03  8.04646338e-03  2.59166261e-03  2.30190765e-03
 -2.45847550e-02 -5.54959033e-02 -5.92170072e-02 -8.06830365e-02
 -4.86738046e-02 -9.41864914e-02 -8.39517483e-03  8.76101770e-02
  1.75448248e-01  5.26091269e-02 -8.65018304e-02 -3.94331812e-02
 -9.81275634e-02  3.66134000e-02 -9.08333306e-02 -7.69627203e-02
 -8.80047809e-02 -9.69327518e-02 -8.60918413e-02 -1.99634677e-02
 -1.52832135e-02 -3.10565816e-02 -1.95223078e-02 -4.74490064e-03
  3.34864480e-03  1.20939849e-03 -5.51044408e-03 -1.96697723e-02
 -2.47537851e-02  5.90412441e-03  1.83306771e-02 -5.96753210e-02
 -8.65439705e-02 -8.98792315e-02  2.01382992e-02  1.92072476e-01
  2.02730637e-01 -4.83903215e-02 -8.27687762e-02 -1.13507521e-01
 -4.42966660e-02 -4.14162853e-02  3.97818489e-02 -2.09635236e-02
 -3.46397676e-02 -1.17688716e-01 -7.93732295e-02  6.51365820e-04
 -3.41556132e-03 -2.24335921e-02 -4.33611353e-03  1.85225483e-03
  2.13016878e-03  5.11142065e-03  1.27580635e-03 -3.52859979e-02
 -2.58641799e-02 -1.15556634e-02  5.37745084e-02 -8.69943284e-03
 -4.44210209e-02 -6.36693872e-03  9.11491587e-02  1.92499398e-01
  2.01524639e-01 -8.88677548e-02 -1.83347614e-01 -1.33361501e-01
 -5.62325435e-02 -1.25658935e-02 -3.65182953e-02 -1.61945813e-02
 -8.03581810e-02 -1.43759916e-01 -7.99878645e-02 -1.05575478e-02
  4.30481019e-03 -7.02535998e-03 -1.63931276e-03 -8.04497351e-04
  9.00198728e-03  5.89265567e-03  3.89647327e-03 -3.49021664e-03
 -5.11136972e-02 -5.96965935e-02  2.67088533e-02 -2.58181464e-02
  2.62883033e-02  5.63106988e-02  1.52217999e-01  2.29394058e-01
  1.51535773e-01 -5.58414792e-02 -1.45829562e-01 -7.85173861e-02
 -4.14423832e-02 -2.72623222e-02 -3.14898357e-02 -2.55738933e-02
 -7.14728312e-02 -1.37040180e-01 -4.16036994e-02 -8.09011988e-03
  5.22352924e-03 -2.31024076e-04 -3.31712081e-03  2.73462499e-03
  1.68157155e-03  2.11198957e-03  8.75530400e-03 -1.13665620e-02
 -8.83213963e-02 -5.80983109e-02 -2.56484330e-02 -3.97978122e-02
  5.18860415e-02  9.23715753e-02  1.75754445e-01  2.40328357e-01
  1.46590361e-01 -5.73657924e-02 -1.04558910e-01 -5.83616549e-02
 -6.26083231e-02 -1.39318409e-02 -1.13153618e-02  1.08411785e-02
 -8.41372135e-02 -1.07728096e-01 -4.16486345e-02 -6.91700941e-03
 -5.52605164e-03  3.92749935e-03  1.97788353e-03  5.46492770e-03
  4.27927437e-03  9.32101091e-03 -5.06046662e-04 -2.84844825e-02
 -7.66804910e-02 -7.93908394e-02 -5.65723091e-02 -5.91098224e-02
 -1.71228500e-02  8.48637251e-02  8.40231869e-03  1.74718042e-01
  8.60332789e-02 -8.72413163e-03 -6.31190266e-02 -3.10499121e-02
 -7.90399845e-02  3.47469862e-02  7.58478188e-03 -3.72607751e-02
 -6.23553718e-02 -9.56996016e-02 -1.84067938e-02  1.08776870e-02
  1.01854090e-03  1.41968046e-02  5.58309604e-03  5.97359909e-03
  6.11986899e-03  7.90688279e-03  1.00059292e-03 -1.91319361e-03
 -4.02828371e-02 -5.45147882e-02 -6.70400241e-02 -8.61944921e-02
 -1.05406166e-01 -2.21620229e-02  3.82659099e-02  1.15174839e-01
  9.79581398e-02  3.70752694e-02 -6.28525857e-02 -4.83081425e-02
  5.37318708e-04  1.29790916e-02 -6.25064433e-02 -6.31712369e-02
 -8.79129377e-02 -8.03989967e-02 -2.59835458e-02  1.16306926e-02
  3.63711596e-03  1.16722155e-02  6.18053145e-03  3.60970033e-03
  1.46226645e-03  4.30703072e-04  4.40396927e-03  2.32646386e-04
 -9.26958770e-03 -9.88565682e-03 -4.55892176e-02 -3.75280168e-02
 -3.61122328e-02 -7.22803800e-04  7.08844807e-02  6.71395506e-02
  1.00089900e-01  1.13439749e-01  7.90181676e-02  3.17555039e-02
 -6.74424577e-03 -6.22310055e-02 -1.08270675e-01 -2.66755055e-02
 -5.09277378e-02 -3.79808440e-02 -2.46144695e-02  5.89385950e-03
  2.32123783e-03  6.22777948e-03  6.80417697e-03  6.89378013e-04
  6.88792364e-03  8.11606638e-03  3.95277549e-03  1.31708764e-03
 -2.06043595e-02 -2.83531714e-02 -7.02007224e-02 -3.26917666e-02
 -9.30676161e-03  5.81842037e-02  8.62936519e-02  1.39593253e-01
  1.81783319e-01  2.01834898e-01  1.47354329e-01  7.65094160e-02
  5.66872062e-02 -7.30715572e-02 -3.58511593e-02  2.19880956e-03
 -5.98731677e-03 -2.00948838e-02 -1.09589633e-02 -6.21063758e-03
  3.30923649e-03  2.48201870e-03  4.60052491e-03  8.32667854e-03
  4.59587184e-03  9.32373691e-03  6.68076424e-03  6.73905421e-03
 -3.01432702e-03 -3.15478038e-02 -5.31352098e-02 -6.91808183e-02
 -7.88341481e-02  1.59634501e-02  9.98712304e-02  1.11724664e-01
  1.04307127e-01  1.03001001e-01  1.16048580e-01  9.37821947e-02
  3.50088623e-02  1.73177589e-02  2.55192831e-02  3.13752696e-03
 -2.43747199e-03  4.30274903e-04  3.85704632e-03  5.00671453e-03
  1.16491622e-02  7.86608708e-03  6.59386677e-03  4.74630214e-03
  1.34057764e-03  1.86472429e-03  3.68551074e-04  9.91403810e-04
  3.05249126e-03 -4.26917375e-04 -2.20890229e-02 -2.51136302e-02
 -2.75007386e-02 -2.64418389e-02 -3.78984005e-02 -1.67712273e-02
  2.08044037e-02 -1.43615765e-02 -7.13697575e-02  7.41137916e-03
  2.77702371e-02  1.90043037e-02 -1.18998279e-03 -1.99982359e-03
 -3.98682490e-03 -1.62698248e-03 -3.21404551e-03  9.25199501e-03
  1.71846372e-03  7.74458170e-03  4.91248255e-03  7.23907567e-03
  4.91412902e-03  7.03708141e-03  1.30688616e-03  5.00333693e-03
  6.70381062e-04  2.04126214e-03  5.07106829e-03 -3.22688472e-03
 -4.37155458e-03  8.48810334e-03  8.26708671e-03  5.29172921e-04
  3.66482150e-03  4.81991142e-03 -2.26171361e-03  2.30137852e-03
  5.38124116e-03 -1.74529884e-03 -3.55044332e-03  2.93940074e-03
  7.16804836e-03  1.74303001e-03  5.01552586e-03  2.78845790e-03
  5.57708015e-03  9.32700613e-03  7.36679860e-03  3.27506897e-04]
[ 7.79573743e-03  1.50374458e-03  9.66327079e-05  8.23955658e-03
  6.21287209e-03  1.90235420e-03  8.96345645e-03  1.49795734e-03
  5.03060340e-03  8.45416199e-03  1.16499431e-03  3.92560239e-03
  1.49568851e-03  3.48387668e-03  2.22277472e-03  6.99093028e-03
  9.52876224e-04  7.26756325e-03  8.89561549e-03  5.06175400e-03
  7.53032298e-03  1.69775428e-03  7.51252597e-03  7.45943011e-03
  4.34020681e-03  8.77093536e-03  2.33052255e-03  3.81645489e-03
  8.76068921e-03  2.70698878e-03  6.13894915e-04  5.38301231e-04
  9.72778314e-04  8.88580630e-03  7.85414975e-03  4.67995265e-03
  1.35630840e-03  3.12570046e-03  3.97799073e-03  2.57842921e-03
  2.68446783e-03  4.68090103e-03  5.85679154e-03  7.44086047e-03
  9.62458699e-04 -7.09047945e-04  1.62842862e-03  1.75325273e-05
  2.78022165e-03  4.48911773e-03  8.46592631e-03  8.51960817e-03
  8.52987869e-03  2.87401302e-03  9.01457422e-03  6.74445773e-03
  9.20724752e-03  3.46770657e-03  7.50503978e-03  1.56620645e-04
  2.50596840e-03  8.28490351e-04  5.11404254e-03  4.61167878e-03
  1.25265208e-03  5.69040451e-03  1.06960532e-02  7.61890365e-04
 -7.94230649e-03  5.47592798e-03  6.86552109e-03  5.89605616e-03
 -6.90452832e-03 -2.02597980e-02 -2.98972839e-03  5.62840163e-03
  5.80349378e-03  7.17026293e-03  8.71674015e-03  1.56649558e-03
  5.93851655e-04  8.43572698e-03  4.50797019e-04  9.06220456e-03
  2.97756715e-03  1.27015339e-03  4.76596353e-03  8.95885175e-03
 -2.54450990e-03 -7.66734991e-03 -9.71131500e-03 -2.35091485e-03
  7.08686602e-04 -1.45294843e-03  2.47675896e-02  4.46167666e-02
  1.39738334e-02  4.31174083e-02  5.98025502e-02  7.47731234e-02
  3.23428807e-02  2.20331321e-03 -2.02057888e-02 -3.75382141e-02
 -6.01850249e-02 -3.42481713e-02  1.63094234e-02  1.00508431e-02
  1.12433230e-02  3.23053646e-04 -9.95871348e-04  5.65896972e-03
  8.34241531e-03  6.41299305e-04  2.84249690e-03  5.04932293e-03
 -4.19165954e-04 -8.17384047e-03  1.11402991e-03  2.21747402e-02
  3.47910993e-02  5.71075584e-02  3.49274760e-02  3.79964822e-02
 -1.00958510e-02  2.93479565e-02  2.49021486e-02 -1.69785343e-02
  2.16427839e-02  9.33902747e-02  6.64329359e-02  6.93463908e-02
  5.84844581e-02 -1.61323147e-02  4.18843410e-02 -2.94156077e-03
 -3.74330071e-02 -1.16563620e-02 -1.41894052e-03  5.10258489e-03
  2.97247040e-03  4.25623032e-03  1.85693437e-03  9.72885947e-04
 -8.38204030e-03 -4.40075627e-03  2.38764926e-02  2.69999244e-02
  4.59766149e-02  3.12538647e-02  3.69199327e-02 -1.61660801e-02
 -3.85983422e-02  4.03669167e-02  4.34404314e-02  1.23770918e-02
  3.85163340e-02  6.81218875e-02  9.85594096e-02  1.48279017e-01
  1.39034356e-01  1.00450921e-01  5.64545134e-02 -4.68627770e-02
 -5.37680515e-02 -2.56066961e-02  1.83750868e-03  5.51567012e-03
  4.94439569e-03  3.33209069e-03  6.29755318e-04  2.29647083e-03
  7.93229923e-03  1.61552458e-02  2.40775685e-02 -1.27171333e-03
 -5.94574452e-02 -9.41942318e-02 -2.33185575e-02  7.95370827e-03
  1.33095786e-02  4.12784192e-02  4.50183535e-02 -2.23022269e-02
 -3.20404715e-02 -3.16833395e-03  3.25428788e-02  9.40200445e-02
  1.20004455e-01  1.27170899e-01  1.01534271e-01 -2.81463542e-02
 -1.22536945e-01 -7.40529373e-02 -1.65834781e-02  5.47602976e-03
  7.23759864e-03  8.87285359e-03  6.79535761e-03  2.24752126e-02
  1.87562255e-02 -1.99032489e-03  6.27014466e-02 -5.76055615e-03
 -1.50187185e-01 -8.98326652e-02 -3.67155073e-02  3.21726346e-02
  1.62210894e-02  5.96433694e-02 -5.61213428e-02 -6.27147375e-02
 -8.35806713e-02  1.71980746e-02  1.28218403e-01  1.63723321e-01
  1.31452894e-01  1.66731014e-01  1.43326581e-01  5.12713841e-02
 -5.78325715e-02 -5.25314675e-02 -8.15701686e-03  3.45510234e-03
  8.19024475e-03  8.35533947e-03  1.49889767e-02  1.38587818e-02
 -9.82207760e-03 -4.44552495e-02 -1.45447454e-02 -5.83421342e-02
 -8.96979950e-02 -9.99929521e-03 -5.59377756e-02 -5.84233381e-02
 -3.39176953e-02 -5.47717035e-02 -5.74754655e-02 -5.13306379e-02
 -8.79436505e-02  2.73505469e-02  8.93867820e-02  1.44880556e-01
  1.25485109e-01  1.62212836e-01  8.37701800e-02  8.25976514e-02
 -2.87654457e-02 -5.74323646e-02 -2.74603705e-03  4.32838296e-03
  9.60696943e-03  9.46036849e-03  4.78155745e-03 -1.00239741e-02
  5.96613974e-03 -2.73670070e-02 -1.79155255e-02 -6.19067942e-02
 -2.23119939e-02  3.94192335e-02 -5.42781561e-02 -1.00886680e-01
 -1.11697655e-01 -9.95864933e-03 -1.06614215e-01 -1.80088792e-01
 -1.99522068e-01 -4.93658519e-02  1.72508072e-01  2.95594037e-01
  2.47494504e-01  1.63320917e-01  4.05547279e-02  7.85972447e-02
  5.92889787e-03 -6.32473969e-02 -1.83236238e-02  1.58683727e-03
  4.19633439e-03  6.65864733e-03  7.50573057e-03 -6.59104508e-03
 -1.05805657e-02 -1.26106097e-02 -3.11499728e-02 -4.02957996e-02
  1.13716172e-02  3.95630869e-02 -6.80184019e-02 -6.30728958e-03
 -6.48365619e-02 -5.07554052e-02 -1.05743279e-01 -2.15069408e-01
 -2.83426029e-01  2.36707577e-02  2.43036042e-01  2.24904699e-01
  1.48541147e-01  1.28008282e-01  1.54527478e-01  1.12766367e-01
  5.14559833e-03 -6.87953933e-02 -3.63655336e-02 -4.28053817e-04
  4.14836275e-03  8.27212647e-03  9.38857601e-03 -1.54439374e-03
 -4.62726024e-02 -1.66070943e-02 -9.11651167e-03  1.01975998e-02
  2.17073265e-02  2.46610643e-02  1.85050745e-02 -5.21831323e-02
 -7.32952972e-02 -3.55098479e-02 -1.38285101e-01 -2.96442869e-01
 -3.68295898e-01 -1.44711579e-01  2.13951743e-01  2.31220678e-01
  1.07126037e-01  3.37714520e-02  4.66757666e-02  6.86829490e-02
  4.48878282e-02 -2.78855813e-02 -2.24452517e-02  7.41514985e-04
  5.68185085e-03  2.20124059e-03  1.34139207e-02  2.61270001e-03
 -2.68773316e-02 -2.57752423e-03  4.33867077e-02  2.05643483e-02
  2.17471618e-02  4.55038932e-02  1.77566930e-02  2.96995387e-02
  1.20376928e-01  5.42984431e-02 -1.11315538e-01 -3.17856889e-01
 -4.14676438e-01 -1.13178109e-01  1.20394491e-01  1.44502336e-01
  5.73362289e-02 -1.84872209e-03  4.95465469e-02  4.93607802e-02
  8.53840379e-02 -4.12232250e-03 -1.52109049e-02  6.47331230e-03
  8.74993416e-03  2.11797069e-03  1.21739388e-02  1.34435038e-03
  1.28192053e-02  2.64710813e-03  7.49871511e-02  5.12337504e-02
  1.12671169e-01  7.43098211e-02  4.66707642e-02  4.03469969e-02
  7.75949094e-02 -1.35734658e-03 -9.22298360e-02 -2.64429287e-01
 -3.82318495e-01 -9.66991068e-02  1.38723640e-01  5.61384905e-02
  5.72503826e-03  1.13796696e-02  3.42772109e-02  1.47409335e-03
  5.10185668e-02  1.32856970e-02 -4.11909495e-03  3.69487751e-03
 -2.42567002e-05  2.91051223e-03  9.26077009e-03  6.08597679e-03
 -4.24683810e-04  6.47624846e-02  2.44286637e-02  1.36251730e-01
  7.38862749e-02  7.07229867e-02  6.08368643e-03  2.82834977e-02
  4.38521071e-03 -3.46590944e-02 -5.38790812e-02 -2.02762230e-01
 -2.20559470e-01 -8.23656947e-03  6.83793765e-02  6.50382923e-03
 -6.54410214e-03  1.66713859e-02 -5.03310447e-02 -3.33583541e-02
  2.87720756e-02  1.85644419e-02  7.97122737e-03  3.46028697e-03
  4.38310857e-03 -1.04089567e-03  5.27434295e-03  1.77564563e-02
 -4.03504102e-02  2.44965372e-02 -3.94013273e-02  5.83552768e-02
 -1.19976554e-02  1.28335599e-01  5.47501579e-02 -2.97483516e-02
 -2.57218233e-02 -5.49085139e-02 -2.01929800e-01 -2.20490388e-01
 -1.45768348e-01  6.68699035e-02  1.36906865e-01  6.86316513e-02
  2.79725502e-02  3.10039282e-02 -6.50863828e-03 -5.42451421e-02
 -6.33434572e-03  2.37951593e-03  2.15632564e-02  2.01840009e-03
  2.02527351e-03  6.91829194e-03 -7.30796823e-04  5.39654533e-03
 -1.98340550e-02  2.06530677e-02  1.52024209e-02  6.02363911e-02
  7.39882083e-02  7.10817794e-02 -1.88178562e-02 -2.63063096e-02
 -8.70658334e-02 -1.12195271e-01 -2.01450134e-01 -1.74913360e-01
 -4.58865786e-02  1.55148798e-01  1.74895693e-01  1.05586253e-01
  3.91966444e-02  1.11540051e-01  3.61809670e-02 -5.93523105e-02
 -4.88889932e-02  2.56034971e-03  2.42044210e-02  7.01713939e-03
  2.61216247e-03  1.82242186e-03  5.72477276e-03 -2.13314908e-02
  3.59100022e-02  5.78699555e-02  5.27502342e-02  8.99357692e-02
  1.23172228e-01  1.03570388e-01  1.48960106e-02 -2.31779718e-02
 -6.49728369e-02 -1.05679240e-01 -1.00145547e-01 -4.32981318e-02
  8.10836295e-02  1.30667009e-01  1.50346662e-01  7.24478790e-02
  1.67306946e-02  7.73619570e-02  5.87647932e-02 -3.48978613e-02
 -2.77219308e-02  2.98279897e-02  1.32514440e-02  3.11152089e-03
  3.24660135e-03  9.12356528e-03  4.52765160e-03 -3.84673293e-02
  4.66288061e-02  3.21076239e-02  2.54171862e-02  8.68397183e-02
  1.45519183e-01  1.54845094e-01  4.58522881e-02 -1.26110887e-01
 -2.09909460e-01 -2.16026265e-01 -1.05142917e-01  1.04073975e-02
  1.48468815e-01  1.43802276e-01  1.35838711e-01  3.55653278e-02
 -1.29357303e-02  1.01963494e-01  3.10742536e-02 -1.41072398e-03
 -3.02638692e-02  1.49823888e-02  9.65614828e-03  1.01456116e-02
  2.96669088e-03  3.52493166e-03  4.17832290e-03 -3.53402799e-02
 -1.37611775e-03  7.46173691e-02  5.82823401e-02  1.24776093e-01
  1.85232066e-01  2.35535074e-01  7.18165170e-02 -1.25186978e-01
 -2.29936504e-01 -1.89665816e-01 -5.03875180e-02  5.89048804e-02
  1.42794038e-01  1.37275979e-01  3.51997102e-02  1.67560014e-02
 -7.30273026e-04  9.83247892e-02  1.03498456e-01  1.40009192e-02
 -4.75613751e-02  2.05793221e-03  9.87653132e-03  2.80277438e-03
  3.55013660e-03  7.40483875e-03  1.95927294e-02  2.12527251e-02
  5.64847373e-03  1.14195352e-01  9.73205936e-02  1.84022223e-01
  1.85174339e-01  1.50873963e-01  6.08826282e-02 -7.56503373e-02
 -1.22152657e-01 -1.23468477e-01 -9.09509674e-02  5.00055298e-02
  8.38196506e-02  3.62110428e-02  3.75965119e-02  6.40355898e-02
  1.88466708e-02  8.84833744e-02  6.79577056e-02  6.59351488e-04
 -3.74679552e-02 -1.27777032e-02  1.08923953e-02  3.92545165e-03
  8.24845629e-03  1.00530844e-02  2.25026785e-02  5.30485454e-02
  4.21951712e-02  1.10207120e-01  1.24554278e-01  1.30111546e-01
  1.34490670e-01  7.46468057e-02  7.26197829e-02 -3.22507445e-02
 -7.98568081e-02 -5.02035210e-02  1.16190776e-02  6.80736203e-02
  4.29817833e-02  4.16539406e-02  1.79786687e-02  2.95283911e-02
  4.25914663e-02  5.94006331e-02  7.90303872e-02  1.44571823e-02
 -9.22961674e-03 -2.30633802e-02  6.02522892e-03  2.00250133e-03
  1.28517393e-03  2.11870698e-03  4.64339830e-03  1.95659656e-03
  3.00367026e-03  9.01481409e-02  1.63432235e-01  1.64974441e-01
  1.59752240e-01  9.03121748e-02  7.49933731e-02  3.60991803e-03
  6.58197626e-03 -2.02933451e-02 -3.33182456e-02 -2.20784935e-02
 -1.92413653e-02 -1.57491310e-02 -3.24522198e-02 -9.62475579e-03
 -2.38848890e-02  1.76572355e-02  5.65797821e-02 -1.54896241e-02
 -2.20595607e-02 -2.05297846e-02 -2.09961839e-03  2.98672260e-03
  1.78177366e-03  1.63076672e-03 -1.82917341e-03 -2.63491016e-02
 -4.74132170e-02 -2.24621001e-02  7.86607825e-02  1.47245123e-01
  1.55278597e-01  1.33413017e-01  9.58425496e-02  6.32453892e-02
  3.22944166e-02 -5.25894313e-02  7.94260374e-04 -3.86632414e-03
 -1.58872353e-02 -1.54448265e-02 -8.14682010e-02 -5.98625070e-02
 -4.60540551e-02 -1.04687289e-03  1.05205129e-02 -2.96503067e-02
 -2.35088087e-02 -1.84086864e-02 -3.87533729e-03  2.50994582e-03
  9.17588787e-03  6.62308825e-03  5.85440873e-04 -1.87624870e-02
 -2.06104649e-02 -1.39506161e-02  2.11163338e-02  4.08751817e-02
  7.12094498e-02  1.38204304e-01  1.00919839e-01  1.01261243e-01
  9.86477559e-02  3.23232806e-03  1.14904407e-02  3.07680695e-02
 -5.09820863e-03 -5.36830681e-02 -7.24891156e-02 -7.84430854e-02
 -4.22875051e-02 -1.24417845e-02 -3.95661021e-03 -1.05906053e-02
 -7.20097135e-03  1.12264671e-02  1.68375859e-04  1.35306726e-05
  8.64341156e-03  9.38444605e-03  3.21405817e-04  9.92762372e-03
  1.46004422e-02  4.90702661e-03 -4.02568810e-04  1.35823491e-02
  7.27656522e-03 -9.71090649e-03 -4.08984875e-02 -4.64730774e-02
 -7.75538366e-02 -5.57326071e-02 -1.57895399e-02  3.68481422e-02
  4.31149282e-02 -7.81164009e-03 -1.25002931e-02 -2.78066871e-02
 -3.06657250e-02 -1.40694512e-03  5.51770829e-03 -1.31655494e-02
 -9.20041692e-03  1.75396294e-03  1.81508677e-03  5.38458839e-03
  7.62009911e-03  9.23305129e-03  1.65725469e-04  7.94217419e-03
  7.16265025e-03  4.27812912e-03  9.57906746e-03  1.43964731e-02
  1.43476199e-02  1.72278716e-02  1.98894252e-02 -1.57666150e-02
 -2.07485632e-02 -2.92384241e-02 -6.29650791e-04  2.72245214e-02
  1.99808226e-02  2.19234497e-02  1.25204914e-02  1.84821366e-03
  1.36312548e-04  3.42569849e-03  1.20636294e-02  4.41285423e-04
  3.38305895e-03  5.10119800e-03  8.99552617e-03  2.74753355e-04
  5.78123485e-04  1.00750340e-03  2.59864241e-03  1.69640898e-03
  3.79412725e-03  6.85196989e-03  4.06349593e-03  2.67546136e-03
  3.24134600e-03  1.21753121e-03  9.76335671e-03  7.61195415e-03
  2.39773674e-03  4.17423744e-03  6.57097705e-03  1.05178706e-02
  5.18744833e-03  6.22250088e-03  1.00225153e-02  5.81837656e-03
  7.11679783e-03  1.04910993e-02  5.36021325e-03  4.94351851e-03
  5.82056848e-03  1.52470107e-03  9.00147188e-04  5.04691019e-03]
[ 2.68137071e-03  4.26637611e-03  1.34117111e-03  6.02339044e-03
  5.41499612e-03  9.06930079e-03  9.85930685e-03  7.70264526e-03
  4.89795951e-03  4.99178992e-03  3.17896043e-03  6.14834251e-03
  8.38474379e-03  3.59893198e-03  2.39051665e-03  1.02293713e-03
  5.25370612e-03  3.35334676e-03  9.30926083e-04  3.91505615e-04
  6.83288933e-03  1.37457711e-03  2.56281812e-03  8.62627612e-03
  3.54387161e-03  8.84590817e-03  9.19384051e-03  9.11068579e-03
  7.20627268e-04  4.78456632e-03  9.36522769e-03  6.26564512e-04
  9.60284764e-03  4.44272400e-03  2.05258527e-03  8.41291457e-03
  8.53927059e-03  6.35333664e-03  6.13156060e-03  6.15589198e-03
  4.45723754e-03  7.13655431e-04  5.22362744e-03  4.89303779e-03
  7.80051493e-03 -1.31278302e-04  6.31146964e-03  2.65426776e-03
  7.83326035e-03  2.85783245e-04  2.73564603e-03  9.41185432e-03
  6.47320967e-03  8.67120074e-03  5.48948154e-03  2.84282161e-03
  4.98288937e-03  2.01821110e-04  9.28930777e-03  6.09970526e-03
  8.32187342e-03  2.01674725e-03  6.31576864e-03  9.69531906e-03
  1.10123332e-02  6.97322971e-03  2.17197940e-03 -8.09724625e-03
 -1.29096556e-02 -2.79784491e-02 -2.05308822e-02 -1.82288294e-02
 -1.91924345e-02 -9.54090532e-03 -3.43800148e-05  2.23887142e-04
  1.09198144e-02  8.28717113e-03  1.33037761e-03  5.22800945e-03
  7.77744194e-04  3.75993398e-03  1.52281116e-03  8.43679030e-03
  6.46736125e-03  3.16165197e-03  7.77720524e-03  4.87255434e-03
  1.36563699e-03  7.94006849e-03  1.51797500e-02  2.30626401e-02
  4.08217418e-02  2.13523608e-02  4.70944762e-02  7.29061697e-02
  7.58790579e-02  5.27581647e-02  1.59773882e-02  1.81862453e-03
 -6.04171891e-03 -1.74877273e-02 -3.37177962e-02 -2.51666808e-02
  5.75747398e-03  6.52436974e-03  1.46375202e-03 -9.54783153e-04
  1.46684244e-03  2.07307345e-03  5.90233371e-03  6.69547156e-03
  9.95079614e-03  6.02442572e-03  5.12960649e-03  5.72602970e-03
  9.69507700e-03 -1.11759859e-03  4.24158584e-03  1.65058559e-02
  3.47901296e-02  5.33659003e-02  1.19280412e-01  9.51656212e-02
  2.48463764e-02 -6.09186557e-02 -8.61420573e-02 -1.34181681e-02
 -4.16969827e-02 -8.61095199e-03  1.53267744e-02 -3.07308970e-02
 -2.98337451e-02  1.79270151e-04 -1.24208966e-02 -6.23925746e-03
  9.88945974e-03  3.39044143e-03  5.63007068e-03  8.07219438e-03
  1.12245698e-03  4.43707791e-03  7.83259168e-03  1.54516220e-02
  1.94310535e-02  2.94128769e-02  4.86452629e-02  8.72410832e-02
  6.69242001e-02  1.09550020e-01  5.78676189e-02  4.57951885e-02
 -2.28850305e-02 -8.19903826e-02 -2.66552264e-02 -3.47851503e-02
 -4.77811047e-02 -4.86460836e-02 -4.14065058e-02 -3.99298747e-02
 -3.53391183e-02 -6.53172176e-02 -4.67198991e-02 -2.76834491e-02
  6.07468156e-03  7.11734960e-03  2.41020804e-03  7.21411152e-03
  6.39818736e-03  7.86015329e-03  5.81489908e-03  2.94706295e-02
  4.34143451e-02  5.58011394e-02  7.05559014e-02  7.06582213e-02
  9.18920102e-02  1.20974607e-01  1.01000961e-01  4.64835797e-02
 -1.44066147e-02  2.41231967e-03  6.81481207e-02  1.30145462e-01
 -3.16477127e-02 -2.68096273e-02  2.22352188e-02 -5.37614903e-02
 -6.70466360e-03 -2.89135819e-02 -6.65861048e-02 -5.32500015e-02
 -7.87487587e-03  9.29434367e-03  5.16312103e-03  3.05975913e-03
  1.11940268e-03  5.76153984e-03  5.58459534e-03  2.44280239e-02
  4.38039042e-02  3.82765499e-02  8.08337612e-02  1.25161416e-01
  7.90509706e-02  1.03339065e-01  1.29885354e-01  1.09847453e-01
  8.46246346e-02  1.55624189e-01  1.58539982e-01  9.30154413e-02
 -8.81280199e-03  3.91014885e-02  2.42540329e-02 -3.30261374e-02
 -2.17011591e-02 -8.43292331e-02 -1.10754804e-01 -8.87823812e-02
 -3.74152470e-02 -7.03665686e-03  8.01311069e-03  1.00494297e-02
  1.22978397e-03  6.05696243e-03  1.66115376e-02  1.42482550e-02
  4.57433323e-02  3.20103199e-02  4.59611328e-02  8.56896428e-02
  1.34212227e-02  5.79245511e-02  1.36537952e-01  1.49766010e-01
  2.38038382e-01  1.90797009e-01  1.51083309e-01  1.23151435e-01
  1.65929405e-01  6.20707992e-02  4.87124643e-02 -3.83092411e-02
 -8.93626449e-03 -9.43942802e-02 -1.87400832e-02 -7.57374334e-02
 -3.75732500e-02 -1.92600056e-03  1.05327659e-02  9.49326216e-03
  7.75597563e-03  4.99816769e-03  1.91620754e-02  3.74868139e-02
  8.19031309e-02  7.41574229e-02  7.60579950e-02  7.95380795e-02
  6.53395777e-02  9.88925571e-02  1.23306495e-01  1.55621705e-01
  1.80917299e-01  1.27397095e-01  1.30677374e-01  1.54851824e-01
  1.21975025e-01  6.96755421e-02  1.20146447e-02 -5.24697519e-02
 -3.98949388e-02 -5.76035189e-02 -2.49415817e-02 -2.51518695e-02
 -7.70895247e-03  1.95160798e-02  1.06239496e-02  1.05910755e-02
  4.80941706e-03  1.24241837e-02  1.62914737e-02  5.98384464e-02
  5.85756464e-02  3.75425907e-02  1.01356363e-01  5.01372871e-02
  4.44274987e-02  1.10620420e-01  8.65968486e-02  4.88032572e-02
 -3.02992566e-02  1.96817556e-02 -2.78049752e-02 -1.25236388e-02
  4.93790915e-02  5.20913784e-02 -2.21237195e-02 -6.44283422e-02
  1.23655880e-02 -2.52935314e-02 -2.46586236e-02 -4.30692749e-03
 -1.33794672e-02  1.90580884e-02  1.16384086e-02  9.08470704e-03
  8.04616872e-03  6.46249766e-03  2.77195016e-02  5.82609900e-02
  7.55944579e-02 -4.21825971e-03  6.22860457e-02 -2.28742979e-02
  3.90035596e-02  5.81842594e-02 -2.54534846e-02  1.01807914e-02
 -2.70041429e-02 -9.61223301e-02 -1.94400015e-01 -8.51126715e-02
 -2.63849247e-02 -2.50649631e-02 -8.36303517e-02 -5.68759617e-02
 -1.36846352e-02 -5.79459466e-02  1.14644856e-02  1.31588716e-02
 -5.64388789e-03  1.49301772e-02  1.64487684e-02  4.68072135e-03
  8.62604945e-03  1.28744858e-02  2.45118017e-02  3.79434062e-03
  3.79125956e-02 -2.96172978e-03  1.96951761e-02 -3.71400372e-02
 -3.51919815e-02 -3.19110346e-02 -6.03993285e-02 -5.69614511e-02
 -7.53164415e-02 -1.01342985e-01 -7.19866069e-02 -6.52300927e-02
 -4.99816713e-02 -1.04194870e-01 -6.61956960e-03 -2.44995487e-02
 -3.48667114e-03 -2.00906255e-02  5.07522165e-03 -2.00942301e-02
 -3.67428456e-02  2.02085192e-03  9.87622426e-03  7.52389452e-03
  4.57143022e-03  5.87954482e-03  1.02303000e-02 -1.11103179e-03
 -2.33369247e-02 -7.59566169e-02 -3.76445291e-02 -2.13230869e-02
 -4.80155297e-02 -4.25820542e-02 -5.32802220e-02 -2.98249800e-02
 -4.57938962e-02  6.18845782e-04  4.65837864e-02 -4.05386364e-02
 -5.50959567e-02 -5.17278869e-02 -1.39123950e-02 -1.88287501e-02
  1.50480982e-02 -1.97536465e-02 -3.47491043e-02 -4.75012218e-02
 -6.81201859e-03 -4.88338224e-03  3.08150789e-03  4.60056237e-03
  9.21461456e-03  1.35364635e-02  9.84359722e-03  9.26755340e-04
 -6.61581618e-02 -1.24123165e-01 -9.14899799e-02 -3.81070194e-02
  1.12405103e-02 -1.48127812e-02 -3.13105136e-02 -4.92265654e-04
  4.86778207e-02  3.13129549e-02  5.15086655e-02  7.40509258e-02
 -8.34564321e-02 -4.72782022e-02 -5.00804482e-02 -2.19100974e-02
  2.57412019e-02  5.61482978e-02 -8.31442744e-03  8.82991731e-02
  3.67122330e-02  5.61777559e-04  4.94980865e-03 -3.23037912e-04
  1.09621237e-03  6.93827353e-03  9.42989316e-03 -2.71377847e-02
 -7.51709345e-02 -9.71185754e-02 -6.94034721e-02 -6.48992934e-03
 -1.98439775e-02 -3.54253200e-02  1.13118196e-02  8.28396980e-02
  5.76894991e-02  4.44993778e-03  1.12897325e-01  1.00688981e-01
 -8.16143195e-02 -2.10875280e-02 -1.44120445e-02 -1.56380073e-02
  5.60016692e-02  1.30709867e-01  8.97131350e-02  1.09711243e-01
  7.82673160e-02 -1.50481404e-02 -1.73381542e-02  3.59593418e-03
  9.76451171e-03  9.97730331e-03  1.92542529e-02 -1.07219267e-02
 -5.42037529e-02 -8.91263282e-02 -7.64215194e-02  1.45716353e-02
  5.62837081e-03  5.52833420e-02 -7.39862074e-03 -2.43699183e-03
  6.54845133e-03  3.28543980e-02 -3.66890900e-02 -5.55063708e-02
 -1.75167989e-01 -1.03826983e-01  9.10254732e-03  2.93232671e-02
  2.79668109e-02  1.43321779e-01  1.16500463e-01  9.27330099e-02
  6.63775006e-02 -4.00327921e-02 -1.11063949e-02  3.72293950e-04
  3.76679350e-03  6.64525345e-03  1.07394890e-02  1.62031304e-02
 -3.90327346e-02 -9.56235003e-02 -9.54713167e-02  2.25584763e-02
  5.07193930e-02  5.53898327e-02 -6.89966783e-03  3.74488438e-02
  1.06642504e-01  7.06907508e-02 -9.62025759e-02 -1.92437769e-01
 -2.26940732e-01 -6.35039813e-02 -7.54276883e-02  8.22209675e-02
  9.50733087e-02  1.44871108e-01  1.26147236e-01  9.43178829e-02
  9.89289648e-03 -3.95047108e-02  5.81548459e-03  3.40448933e-03
  1.51160253e-03  3.00259484e-03  7.93595647e-03  2.31883666e-02
 -3.77460628e-02 -7.64238584e-02 -6.96841430e-02 -4.35815672e-02
  1.05054042e-02  5.98327025e-03  4.37821253e-02  6.44964494e-02
  4.51751170e-02 -6.28136521e-02 -1.95900908e-01 -2.16894748e-01
 -1.87348927e-01 -8.64531130e-02 -1.63758790e-02  1.79329925e-01
  1.75487380e-01  1.64334282e-01  1.75936826e-01  6.44912233e-02
 -1.27354791e-02 -3.12891993e-02  4.88316288e-03 -1.06390119e-03
  7.42419393e-03  6.77305199e-03  4.59442947e-03  6.30847027e-03
 -3.73791039e-02 -4.10209268e-02 -1.33159670e-01 -7.31305527e-02
 -3.30150757e-02 -6.69884066e-02 -9.95896957e-02 -8.86101288e-02
 -1.35065376e-02 -1.64390060e-01 -1.65990703e-01 -1.45404084e-01
 -8.49601338e-02 -4.18747169e-03  5.46181027e-02  1.94724413e-01
  1.77302264e-01  1.66915214e-01  1.20761928e-01  3.30755029e-02
 -1.80647323e-02 -1.25902615e-02 -3.30569498e-03  2.50648715e-03
  3.06420117e-03  8.34746680e-03  1.04239096e-02  7.60095464e-03
 -3.35385835e-02 -5.92587793e-02 -8.32839549e-02 -7.37085426e-02
 -1.76022658e-02 -4.04833994e-02 -9.06951743e-02 -1.68005428e-01
 -1.90523324e-01 -1.43271246e-01 -6.64414773e-02 -9.06455601e-03
  4.17815897e-02  6.73769916e-02  8.21025238e-02  2.11288717e-01
  1.69292761e-01  1.14806833e-01  6.45164136e-02  2.98884158e-02
 -1.94761239e-02  5.61490738e-03  9.16454622e-04  6.70413224e-03
  8.40356592e-03  6.08422300e-04  4.78760653e-03  1.52077247e-03
  1.15139397e-03 -4.94326278e-02 -2.87992800e-02 -4.58916287e-02
 -1.28810010e-01 -1.24267685e-01 -6.78082062e-02 -8.48501978e-02
 -7.97420595e-02 -9.96597182e-02 -2.55412266e-02  1.15440137e-01
  1.71854356e-01  7.62827810e-02  1.05703286e-01  1.20911084e-01
  8.46811494e-02  4.68842161e-02  1.95044828e-02 -5.18620355e-03
 -1.23846926e-02  4.93302440e-04  6.29565075e-04  6.81554487e-03
  8.82116577e-03  7.51293232e-04  6.29058089e-03  1.82126599e-02
  2.10660323e-02  1.21578917e-02  1.00016096e-03 -3.83767465e-02
 -8.18499106e-02 -1.15335609e-01 -1.13510281e-01 -3.26577259e-02
  3.65996746e-02  1.25341209e-02  3.53179724e-02  1.23877356e-01
  1.64190836e-01  1.56339968e-01  1.06977035e-01  5.57806728e-02
  2.73904064e-02 -2.19085965e-02  1.09426543e-02  6.02152026e-03
 -8.74536183e-03  1.57800474e-03  1.29995522e-02  2.53316914e-03
  5.61558600e-03  8.19187891e-03  1.04245647e-02  2.80166512e-02
  4.78152541e-02  5.46913630e-02  7.76088390e-02  2.85725785e-02
 -3.26567375e-02 -5.84540105e-02  4.04312346e-02  1.14728208e-01
 -2.49656854e-03  1.12768346e-01  9.86267643e-02  1.27821014e-01
  1.13512955e-01  6.64119808e-02  4.84035002e-02 -4.30946538e-02
 -3.86747445e-02 -9.35542171e-02 -2.86429550e-02  1.03841716e-02
  1.96405805e-02  5.46048610e-03  7.62509424e-03  4.76589433e-03
  3.02436765e-03  4.36887346e-03  3.91783611e-03  2.62378402e-02
  6.07002142e-02  8.17511835e-02  1.14208586e-01  1.16957616e-01
  7.37582322e-02  9.03361100e-02  1.39910895e-01  1.21437392e-01
  1.15669773e-01  1.50315723e-01  1.10940736e-01  1.18577211e-01
  6.78388999e-02  3.21357552e-02  1.58940954e-02  4.35582672e-03
 -3.73732107e-02 -4.09861282e-02 -1.88196644e-02  3.29515292e-03
 -2.91019409e-03 -3.07042111e-03  5.40254351e-03  9.73767070e-03
  3.09172150e-03  4.29860513e-03  2.87789524e-03  9.83372768e-03
  2.04369007e-02  5.50186498e-02  7.70176682e-02  1.01374885e-01
  1.55690677e-01  1.53704423e-01  1.95508934e-01  1.61817997e-01
  2.20683816e-01  1.35924538e-01  1.51046763e-02  5.31036499e-02
  1.06526264e-01  7.52206267e-02  3.85215292e-02  1.06988104e-01
  3.41504560e-02 -2.16179832e-02 -4.76329402e-04  1.82986213e-02
  1.01295018e-02  7.29273390e-03  7.65238355e-03  1.62622673e-03
  6.85379180e-03  4.65743133e-03  6.00178299e-04  4.58515464e-03
 -1.28156031e-03 -1.04854712e-02  5.68984784e-03  2.12365211e-02
  2.57066636e-02  2.22534282e-02  4.62238838e-02  6.74914522e-02
  5.89472899e-02  9.31442982e-02  8.45353132e-02  7.88751402e-02
  7.66539770e-02  5.73212505e-02  5.20347443e-02  5.79812871e-02
  3.09652911e-02  9.56996052e-04  4.46225700e-03  6.26768339e-03
  9.38900418e-03  5.56886460e-03  8.11608460e-04  5.83049440e-04
  6.55645887e-03  9.91895488e-03  4.00762966e-03  8.85976209e-03
  8.50313929e-03  5.32980153e-03  4.90283036e-03  1.04248615e-02
  9.05734165e-03  3.97953823e-03  9.88104434e-03  9.21174136e-05
  8.75969513e-03  1.28232119e-02  1.18580568e-02  7.78659132e-03
  1.19595508e-02  8.02267479e-03  3.48063696e-03  1.23363844e-02
  1.09594241e-02  1.15465763e-03  5.50938816e-03  9.72491321e-03
  7.91112735e-03  6.91914859e-05  1.87561080e-03  7.91711942e-03]
[ 2.96842508e-03  9.79263884e-03  9.33912328e-03  4.34379915e-03
  9.51783655e-03  6.34680098e-03  8.68581518e-03  5.50945448e-03
  1.93488014e-03  7.82575071e-03  4.02465060e-03  7.12816033e-03
  5.17227820e-03  7.10042581e-03  8.47004900e-03  1.30929776e-03
  9.28821929e-03  1.68965030e-03  1.77060784e-03  7.63835764e-03
  8.26202217e-03  6.63742843e-03  7.63552133e-03  9.27122730e-03
  8.17672130e-03  6.10934269e-03  4.49900517e-03  7.05473215e-03
  5.45705781e-03  7.32224860e-03  6.91231579e-03  7.13930355e-03
  8.07403159e-03  6.83251927e-03  6.20893765e-03  6.31722241e-03
  6.63691476e-03  7.28707507e-04  3.00174061e-03  3.26118089e-03
  7.68534909e-03  6.66969455e-03  7.80290940e-03  9.80804247e-03
  1.11964330e-02  9.78873268e-03  9.75736871e-03  8.33693968e-03
  4.49143679e-03  3.85159166e-03  3.42476816e-04  3.82343711e-03
  3.33679254e-03  2.23682322e-03  3.17473928e-03  5.09957550e-03
  3.39734526e-03  4.17865744e-03  6.25097257e-03  8.02891035e-03
  8.02923728e-03  4.43323464e-03  1.73302509e-03  1.02149453e-02
  8.40361587e-03  1.18856609e-02  1.47594677e-02  1.28912826e-02
  1.49999315e-02  1.10287482e-02  2.19462891e-02  2.82036905e-02
  2.98512153e-02  1.49790136e-02  1.62247116e-02  1.16381957e-04
  3.03147613e-03  6.03753472e-03  6.05585932e-03  6.93959697e-03
  3.44218273e-03  7.24391617e-03  8.14520056e-03  1.08470672e-03
  9.02703464e-04  4.72951881e-03  7.48116700e-03  2.67989977e-04
  4.82967124e-03 -4.13254961e-03 -5.73408966e-04 -5.36218890e-03
 -1.02068561e-03  6.69650020e-03 -1.08038895e-03 -4.95562832e-03
  1.01025225e-02  4.03964841e-02  5.55484038e-03 -2.65747531e-02
  1.31059204e-02  3.94604576e-02  1.58829871e-02 -3.90251090e-02
 -4.91426679e-02  1.59586369e-02  2.65618616e-02  2.17122071e-02
  1.10877836e-02  5.78068527e-03  2.06592142e-03  3.21442957e-03
  9.54196468e-03  7.11562143e-03  9.08641355e-03  7.98381458e-03
  6.72283521e-03 -1.13539180e-02 -2.03589756e-02 -3.26130484e-02
 -6.22154118e-02 -4.86315137e-02 -6.16929736e-02 -3.16748107e-02
  4.78366762e-02  4.73534414e-02  6.84644242e-02 -1.61212626e-02
  2.33533581e-02  5.35425276e-02  2.07888508e-02  6.45856296e-03
  1.32525203e-02  4.99541360e-03 -4.26178903e-03  3.72455823e-02
  2.38252868e-02  1.00215596e-02  1.31909614e-02  6.78474914e-03
  7.96350735e-03  7.71049471e-03  4.61447251e-04 -1.71916642e-03
 -1.21393816e-02 -4.04954041e-02 -7.78221249e-02 -9.50539050e-02
 -8.50579148e-02 -8.11398071e-02 -6.81828130e-02 -1.42293523e-02
 -1.41806313e-02 -2.63329648e-03  5.87392612e-02  6.60178884e-02
  1.03833173e-02  1.01153921e-01  5.20271823e-02  3.89044294e-02
  7.73643334e-02  6.25689653e-02 -2.17013503e-02 -3.36942910e-02
  2.44825584e-02  3.93386702e-02  8.12591105e-03  8.16664337e-03
  4.37847023e-03  6.98685548e-03  5.98638552e-03 -6.55790757e-03
 -1.91297279e-02 -7.28872563e-02 -1.20606603e-01 -1.12927748e-01
 -9.40300909e-02 -8.79936594e-02 -7.65869485e-02 -3.52306866e-02
 -3.13033114e-02 -7.14105879e-02  2.63099336e-02  1.55460268e-01
  7.23738587e-02  6.51859400e-02  5.98021597e-03  7.42127504e-02
 -1.78608190e-02 -5.59966855e-02 -1.50457288e-02 -1.76126854e-02
 -1.65327143e-02  3.70885808e-02  7.82105447e-03  7.79045205e-03
  9.16964064e-03  7.42990371e-03  9.19188334e-03 -1.75532249e-02
 -4.02403445e-02 -7.32598167e-02 -7.45048610e-02 -1.01042839e-01
 -1.19733020e-01 -7.93816489e-02 -2.98223242e-02 -2.37291733e-02
 -6.91534058e-02  5.49029533e-02  5.81130878e-03  1.28341027e-01
  1.07194493e-02  7.49855258e-02  7.56971311e-02  2.12279844e-02
  4.47730955e-03  3.68335512e-02  1.34449594e-02 -6.79593517e-03
  3.00707702e-02  4.93477824e-02  7.56854688e-04  8.78444285e-03
  8.08371950e-03  2.78528389e-04 -5.69913702e-04 -2.33884298e-02
 -5.51442219e-02 -8.92999345e-02 -6.30405982e-02 -1.12795479e-01
 -1.29998817e-01 -6.53663483e-02 -7.98796145e-03  3.60725848e-02
  3.92094021e-02  1.60683046e-01  5.79221100e-02  2.21194747e-02
 -2.45795868e-02  4.36111287e-02 -2.80728849e-03  3.57659223e-02
  3.63586682e-02 -1.48392726e-02 -4.72450999e-02  6.86642182e-02
  8.83306641e-02  5.74449042e-02  1.59936262e-02  1.05989425e-02
  1.08020100e-03 -3.54206227e-04  1.04129536e-04 -2.01799674e-02
 -6.17621038e-02 -9.91365523e-02 -8.43582453e-02 -1.22615872e-01
 -1.66455363e-01 -9.48686239e-02 -4.98846559e-02  1.62578352e-02
  5.72257210e-02  1.58544809e-01  1.32638619e-01  2.21539713e-02
 -8.16785121e-02 -4.82837960e-02 -8.52307841e-02 -2.27852826e-02
 -1.60851012e-02 -1.12057456e-02 -4.66545061e-02  3.46589470e-02
  9.20438295e-02  4.09983065e-02  5.18393904e-03 -1.06845542e-02
  6.01319802e-03  7.91793468e-03  1.42066903e-04 -2.36715917e-02
 -3.75393599e-02 -3.79875782e-02 -5.54900091e-02 -7.04086588e-02
 -7.56331586e-02 -6.13338534e-02 -7.47142177e-02  2.88099886e-02
  1.07471016e-01  7.84649876e-02  1.46702838e-01 -3.32760247e-02
 -1.44243147e-01 -8.65720005e-02 -3.02793698e-02 -7.36804823e-02
 -8.40235139e-02  2.14951053e-02 -2.72172502e-03  2.64627459e-02
  4.41109566e-02 -8.95472484e-03  1.02641435e-02  5.19552215e-03
  4.54700006e-03  2.34887262e-03 -8.25288987e-04 -2.48593643e-02
 -5.06926286e-02 -1.65034875e-02 -2.89719916e-02  3.26577018e-02
 -9.23317566e-02 -4.76613531e-02 -8.09132322e-02 -2.62656261e-02
  1.26489915e-02  1.90390019e-02  1.25807584e-01 -5.55516800e-03
 -3.29843707e-02 -1.47077510e-01 -6.05979611e-02 -3.34448567e-02
 -5.50182614e-02  4.73205510e-02  6.83305296e-03  4.13157825e-02
  7.60266469e-02  3.92931526e-02  2.75160207e-02  1.00121468e-02
  9.40032062e-03  2.72684750e-03  8.84770842e-04 -1.06400090e-02
 -3.91472120e-02 -3.99633807e-02 -1.97211085e-02  4.39280395e-03
 -4.96817622e-02  3.78003580e-03 -4.00213654e-02  5.37008199e-02
  6.70181094e-04  9.42489496e-02  6.63860314e-02  7.78174360e-02
  1.10733943e-02  1.42310569e-02 -1.16420316e-01 -3.50325772e-02
  3.82877757e-02  7.72614436e-02  7.03814699e-02  7.65924489e-02
  5.15149448e-02  1.91871925e-02  1.08980722e-02  1.04773943e-03
  9.05902627e-03 -1.14941853e-04 -2.15248389e-03 -7.47874710e-03
 -2.64226446e-02 -5.02221777e-02 -2.20165983e-02 -5.46282446e-03
  1.59734213e-02  1.90228725e-02 -1.98585984e-02  2.38504234e-02
  8.36674813e-02  4.77586174e-02  9.09923794e-03  1.48711603e-01
  1.01200744e-01  2.45117114e-03 -3.67219313e-02 -7.63848350e-02
  2.53270935e-02  1.09705206e-02  7.88706703e-02  5.51909025e-02
  9.61094476e-03  1.63624826e-02  1.81720423e-02  1.06499873e-02
  2.27227446e-03  3.70990929e-03  4.96683628e-03 -8.77392651e-03
  6.20775818e-05 -1.56652871e-02 -9.01452314e-04  1.69425623e-02
 -5.87767867e-02 -4.37802684e-02  6.29680586e-02  9.38426837e-02
  4.83048761e-02  7.79489858e-02  2.35667158e-02  4.11190528e-02
  4.28591504e-02 -8.24437028e-03 -4.74791891e-02 -4.46930647e-02
 -3.22630487e-02 -2.58942148e-02  5.57124147e-03 -1.99205012e-02
 -1.40416832e-04  3.14220846e-02  1.03745681e-02  6.62059108e-03
  9.46883941e-03  3.09818718e-03  5.36576083e-03  1.12218106e-02
 -1.42819949e-02 -2.64447805e-02  1.38148607e-02  1.48635429e-03
 -2.83943912e-02  6.33986682e-02  1.08227730e-01  8.19851538e-02
  5.09073343e-02  2.35758119e-02  6.60215448e-03 -2.28430239e-02
  2.13804218e-02 -2.89966499e-02 -2.49194173e-02  9.76348523e-03
 -2.23463643e-02 -1.36742766e-02 -5.94190787e-02 -7.48198039e-02
 -1.37147214e-02  3.15100435e-02  6.06932036e-03  9.38253180e-03
  3.89294725e-03  2.93043170e-03 -8.05775328e-03  1.67387687e-03
 -4.14471394e-02 -3.87801197e-02  7.35568086e-02  5.49502493e-02
  1.18629752e-01  1.56221264e-01  1.78573450e-01  1.50566350e-01
  7.06226291e-02 -8.45597249e-02 -7.21199469e-02 -5.63328224e-03
 -4.73679492e-02  3.31170808e-02 -3.58395837e-02 -4.67081266e-02
  6.05386713e-03  5.35776947e-02  9.43780883e-03 -3.43213488e-02
 -3.35333882e-02  4.79907309e-02  1.45364183e-02  8.70967818e-03
  4.57171810e-03  1.55388033e-03  2.49752681e-03 -2.90108497e-03
 -2.42708441e-02  4.05124964e-02  1.19359598e-01  8.48643573e-02
  1.69860142e-01  1.99792546e-01  1.96339400e-01  1.09684838e-01
 -5.51047508e-02 -2.22342572e-01 -6.67873477e-03  3.24255339e-02
 -2.02474428e-02 -6.68255141e-02 -5.36487806e-02 -4.71209367e-02
  5.14170954e-02  6.47025142e-02  2.58093350e-02  1.56032911e-02
  8.69145282e-03  4.01138645e-02  1.10780315e-02  8.33378735e-03
  8.47567943e-03  5.10544977e-03  1.14998006e-03 -3.21017037e-02
  4.73863985e-02  8.99187763e-02  1.69784249e-01  1.79131719e-01
  1.44630677e-01  2.55019791e-01  1.40263962e-01 -7.81069746e-02
 -2.08528190e-01 -2.13941557e-01  5.42203405e-03  2.33072615e-02
 -3.47588844e-02 -8.70717439e-02 -1.21674873e-01 -3.65229726e-02
  5.80857720e-02  6.75047283e-02  3.68847464e-02  6.84053385e-02
  1.73468465e-02  5.44139989e-03  3.43817780e-03  9.09630505e-03
  8.69309378e-03 -9.37848615e-04 -2.82957285e-03 -4.21653616e-02
  1.78956837e-02  7.42781520e-02  1.18659323e-01  9.96944842e-02
  1.59797953e-01  2.02796265e-01  1.11046045e-01 -1.54984163e-01
 -3.22647236e-01 -1.92149281e-01 -5.15007847e-02  2.79155423e-02
 -5.83290713e-02 -9.81741186e-02 -1.17553879e-01 -1.84974097e-02
 -1.16475298e-02  5.75222105e-02  1.09599495e-01  6.28278191e-02
 -2.24173124e-02  4.73995033e-03  9.60254705e-03  2.29001129e-03
  9.27710394e-03  3.54106867e-04  1.19994826e-02 -4.04118129e-02
 -2.42187334e-02  8.68620280e-02  9.04072397e-02  9.48588205e-02
  1.24929431e-01  9.79690446e-02  1.01678819e-01 -1.01626135e-01
 -2.11102785e-01 -2.02213773e-01 -1.24178652e-01  3.19698167e-03
 -1.23011412e-01 -1.41487898e-01 -1.37607711e-01 -5.91828140e-02
 -3.26314149e-02  5.28221266e-02  7.55696425e-02  3.15505019e-02
 -8.75289873e-03 -9.98086115e-05 -1.55784218e-03  5.63265131e-03
  1.49531925e-03  4.71520431e-03  1.52018629e-02 -8.75836871e-03
  2.58213543e-02  5.78070634e-02  8.85822628e-02  1.19082988e-01
  8.45251178e-02  1.82922346e-01  6.54725098e-02  5.23346049e-02
 -1.06814431e-01 -9.34187655e-02 -8.25806483e-02 -8.38441900e-02
 -1.29403571e-01 -8.46571171e-02 -7.52639786e-02 -4.00390280e-02
 -9.17961320e-03  1.94928657e-02  4.06833301e-02  2.72333599e-02
 -7.55901423e-04  1.81072379e-03  9.92699800e-03  8.46147671e-04
  6.49541783e-03  7.51020250e-03  2.14487243e-03  1.76049342e-02
  3.27558849e-02 -6.62256984e-03  5.54919083e-02  1.27550850e-01
  4.52773722e-02  9.13206258e-02  1.49583336e-01  1.38715812e-01
  1.12984400e-01  4.98454859e-03 -7.43747766e-02 -6.83747082e-02
 -9.92378237e-02 -1.06797718e-01 -8.12819969e-02 -5.55140186e-02
 -5.39617880e-02 -1.70363462e-02 -9.65785683e-03  1.74294055e-02
  1.34938319e-02 -5.36247973e-03  3.27488637e-03  9.20239044e-03
  4.67540264e-03  9.90036838e-03  4.10643640e-03  1.14606923e-03
 -3.95445819e-03 -2.50740803e-02 -5.17883637e-02 -8.37676947e-03
  4.94218653e-02  5.95692484e-02  8.25982702e-02  2.30221744e-02
  5.84133998e-02  4.69213525e-02 -3.67819460e-02 -5.44564029e-02
 -4.37267443e-02 -1.13734997e-01 -7.70112039e-02 -4.01828746e-02
 -4.05601191e-02 -1.43836848e-02  1.31283418e-02  2.59533107e-02
  3.84150782e-03  3.72910281e-03  1.22107619e-04  7.29679888e-04
  7.79035935e-03  1.41934225e-03  5.52774693e-04 -8.23036287e-03
 -4.07983091e-02 -6.60701107e-02 -6.81934548e-02 -5.65717796e-02
  4.49508682e-02  6.62301624e-02  4.91255653e-02  9.19802176e-02
  6.35504955e-02  6.10180212e-02  1.01776293e-03 -2.38848786e-02
 -3.72578769e-02 -8.59154020e-02 -3.62512250e-02 -1.69161506e-02
 -1.58388150e-02 -2.02780597e-02  4.02988996e-05  1.13322475e-02
  1.25087086e-02  4.38598097e-03  9.80087381e-03  8.75682632e-03
  2.72619844e-03  7.61740275e-03  6.23470764e-03  1.55919985e-03
 -2.30318750e-02 -4.62826883e-02 -4.09454792e-02 -4.66015001e-02
 -6.04210539e-02 -3.58048744e-02 -1.52644638e-02 -1.52451635e-02
 -1.26941851e-02  2.37500567e-02  3.95240552e-02  1.70587395e-02
  2.37679386e-03  9.42255246e-03  1.03246934e-03  5.84105456e-03
  8.99482202e-03  6.14098299e-03  1.81706000e-03  1.09618129e-02
  6.09906967e-03  8.77456917e-03  1.64121297e-03  8.71496994e-03
  2.78368015e-03  1.74160623e-03  7.36995810e-04  3.84867001e-03
  9.20025697e-03  9.70209833e-03  5.04809250e-03  8.86783726e-03
  1.08583522e-02 -7.57408028e-04 -8.28750771e-03  1.61586239e-02
  2.38476612e-02  5.51267604e-03  6.91587758e-03 -1.64877944e-03
 -7.20941367e-03  2.84748818e-03  3.88375513e-04  4.99435540e-03
  4.57913504e-03  5.59930496e-03  1.59282676e-03  1.92630759e-03
  8.83541006e-03  2.39715121e-04  5.97359408e-03  5.55676332e-03
  7.83522328e-03  9.34367035e-03  5.14049136e-03  5.87139086e-03
  6.11281350e-03  3.36646652e-04  2.52779427e-04  1.16491593e-03
  7.55343316e-03  8.20385941e-03 -1.48404125e-03  9.43561805e-03
  1.38756579e-03  4.82760243e-03 -1.36429694e-03  1.37400387e-03
  5.91697656e-03 -1.98937382e-03  2.51739509e-03  4.21364206e-03
  8.55186293e-03 -6.05192498e-04  2.34455108e-03  1.14305311e-03
  1.29291482e-03  9.68772994e-03  6.94773237e-03  3.64439732e-03]
[ 9.65987953e-03  8.20662944e-03  1.46684029e-03  3.36245045e-03
  2.71195741e-03  8.11956971e-04  8.58244781e-03  5.55676522e-03
  6.84463573e-05  6.82737498e-03  6.90829050e-03  6.36589075e-04
  1.63437365e-03  3.21044452e-03  3.56191018e-03  4.35727234e-03
  8.72165331e-03  5.22409206e-03  6.73993319e-03  2.07080279e-03
  5.91508553e-03  3.78819212e-03  6.67056504e-03  6.64462817e-03
  5.47534440e-03  8.14023124e-04  9.32502009e-03  1.62744259e-03
  2.98335126e-03  8.91459641e-03  4.51308889e-03  1.62346870e-03
  5.81531455e-03  9.96527465e-03  1.11053946e-03  7.67716562e-03
  8.94988449e-03  6.80019227e-03  8.48805679e-03  2.33532797e-03
  2.38431415e-03  1.71655967e-03  5.99204254e-03  7.47561037e-03
  3.29783848e-03  7.50970380e-03  2.67040524e-03  8.19126016e-03
  7.53823209e-03  3.14839262e-03  5.47005607e-04  6.65912018e-03
  9.37353301e-03  3.03375200e-04  5.15690136e-03  6.07310744e-04
  7.48175948e-03  8.60176284e-03  4.67454985e-03  2.69961563e-03
  6.22378963e-03  2.91425635e-04  4.21704970e-04  9.91524575e-03
  5.99209223e-03  1.31237747e-02  8.46685750e-03  1.26163909e-02
  4.53406322e-03 -6.38281073e-03  2.71537911e-03  1.03696373e-03
 -9.66618997e-05  2.38901225e-03  1.64034197e-02  6.21989115e-04
  4.84939624e-03  6.73479851e-03  2.75312873e-03  1.21648727e-03
  6.51926222e-03  3.17988806e-03  7.36169430e-03  8.24738445e-03
  6.06748927e-03  9.08387105e-03  5.40816350e-03  4.62746591e-03
  7.98090723e-03  9.92085372e-03  8.40743196e-03  1.61591975e-02
  2.25895572e-02  3.04316314e-02  3.83211562e-02  4.17514880e-02
  4.58169565e-02  2.80434029e-02  1.22951295e-02  3.76098033e-02
  3.64973176e-02  4.84468712e-02  5.18943025e-02  3.63372090e-02
  3.82138723e-02  3.81813314e-02  1.76098279e-02  4.90596545e-03
  3.70160151e-03  5.66809860e-03  4.04380404e-03  1.17408244e-03
  6.74166550e-03  8.58733745e-03  2.97232002e-03  4.57513509e-03
  5.92504667e-03  4.73440400e-03  1.78800269e-02  2.87116998e-02
  4.52582571e-02  6.77900920e-02  8.83352217e-02  6.59025160e-02
  4.85469812e-02  2.30876149e-02  3.78432171e-02  6.65593699e-02
  1.02497481e-01  8.07170061e-02  9.17050878e-02  8.96972911e-02
  7.95200312e-02  4.14351823e-02  2.51000481e-02  8.67376095e-03
  2.63504094e-02  2.37163552e-02  1.22383734e-02  7.88966670e-03
  9.36208349e-03  2.17494564e-03  9.86611397e-03  8.44151141e-03
  5.19943131e-03 -3.02481839e-02 -2.45328122e-02  1.54613696e-02
 -5.12781188e-03 -2.00369242e-02  3.99976121e-02  5.48926071e-02
  4.90009612e-02  3.83011291e-02  1.98385395e-02 -5.04236620e-02
 -9.41569654e-03  6.14103705e-03  6.97232698e-03  6.83179765e-02
  1.29630794e-01  6.73475061e-02  5.28090219e-02  2.63325965e-03
  3.01768357e-02  3.96707071e-02  7.05826864e-03  7.69116593e-03
  9.92258785e-03  2.15453620e-03  8.42541519e-03  2.08387404e-03
  8.67818258e-03 -1.04400499e-02 -9.53558918e-03 -3.67686567e-03
  6.82594976e-03  5.03910640e-02  8.71773788e-02  4.21496195e-02
  8.73527232e-02  7.30863761e-02  2.05166201e-02 -1.06202609e-02
 -6.81211493e-02 -3.40968567e-02 -3.50165358e-02  5.46793274e-02
  5.45835570e-02 -7.53475416e-04  3.05492766e-03  2.54191912e-02
  4.63664372e-02  4.25097284e-02  1.09721843e-02  4.96281800e-03
  5.25050569e-03  6.67722079e-03  1.00580088e-03 -6.85490729e-03
  2.08952295e-02  5.05531343e-02 -1.62408763e-02  3.20990549e-02
  1.26605411e-01  3.32394945e-02  6.66934402e-02  4.66556167e-02
  8.79123698e-02  9.05226465e-02  8.01383579e-02  1.05368970e-03
 -7.24792221e-02 -6.42703228e-02  3.15566445e-02  3.02431142e-02
  2.29402963e-02  7.99619022e-03  1.99869865e-03  6.01406588e-04
  2.79077544e-02  3.03360239e-02  9.57125698e-03  6.99510534e-03
  2.18609126e-05 -3.28339238e-03 -6.12968672e-04 -8.48405226e-03
  1.91510895e-02  3.47061421e-02  2.82197721e-02  6.62971209e-02
  1.53470383e-02  1.54435824e-02  4.58169758e-02  5.25989693e-02
  1.04442776e-01  8.59955145e-02 -2.96920901e-02 -1.25661976e-01
 -6.97671629e-02 -2.75261060e-02 -5.04649925e-02  3.14763740e-02
  5.88214288e-02 -2.81658989e-02 -1.29872962e-02 -1.64594472e-02
  2.37423744e-02  3.74534221e-02  2.77789716e-02  9.56400457e-03
  8.57611727e-04  2.11344789e-04  1.15668317e-02 -1.79152281e-03
 -1.57983584e-02  4.77776443e-02  6.54021943e-02  5.58087043e-02
  6.84678156e-02  4.54610226e-02  3.77870084e-02  1.12117706e-04
 -1.80752327e-02  2.77384270e-02  2.27325461e-02 -6.32963430e-02
 -1.99340250e-02 -3.22408800e-02 -4.60747308e-02  4.54294712e-02
  2.72866311e-02 -2.32449547e-02 -2.10032009e-02  3.48779734e-02
  4.13546964e-02  6.54241998e-02  1.86477331e-02 -1.15517908e-02
  7.07923451e-03  1.65543864e-03  3.07111736e-03  5.98078890e-03
  4.20517917e-03  3.14824394e-02  5.29500605e-02  4.86750843e-02
  1.78978282e-02 -7.40714220e-03  6.98451089e-02  7.45941842e-03
  4.14791392e-02  8.20173640e-02  8.02566018e-02 -8.40589116e-02
 -7.11221286e-02 -5.76700983e-03  7.45787572e-02  7.52748866e-02
  6.18110520e-02 -3.09954519e-02 -3.77606916e-02  1.68666090e-02
  1.13329696e-02  3.63662526e-02  1.19193766e-02 -7.99058884e-04
  1.57392355e-03  3.81449831e-03 -1.83357518e-02 -6.02672463e-03
  5.95328094e-02  4.35862216e-02  1.57929984e-02 -1.91873082e-02
 -3.54905538e-03  2.76149010e-02 -1.88035767e-02 -3.78498006e-05
  6.71798991e-02  7.04221068e-02  2.27059301e-02 -6.98758830e-02
 -7.31624504e-02 -2.86474911e-02  1.42612263e-02  2.32347845e-02
 -3.07965978e-02 -7.17459600e-02 -8.36607227e-02 -6.40947335e-02
 -3.74297458e-03  2.84411510e-02  1.59002753e-02  4.00382028e-03
  4.29740621e-03  8.23755547e-04 -7.84889839e-03  9.64168966e-03
  2.45215788e-02  4.91496852e-02  2.40449821e-03  2.95891776e-02
 -1.02106542e-02  4.73940306e-02  5.41199303e-02  2.16145251e-02
  6.28659051e-02  1.70269967e-02  4.08245093e-03 -8.47522021e-02
 -8.01680162e-02  3.62514654e-02 -3.51981596e-02  4.15796426e-03
 -1.35276540e-03 -2.27405055e-02 -8.55249717e-02 -6.59231561e-02
 -1.77439043e-02  8.50794519e-03  9.10279346e-03  9.23908001e-03
  4.09389317e-03 -1.35221185e-03 -6.38291327e-03  1.21981902e-02
 -9.78840633e-03  1.52711079e-02 -2.09161940e-02 -6.00308015e-03
 -3.58421181e-02  1.61839481e-02 -5.11822505e-02 -5.25305151e-02
 -1.81464487e-02  3.21208697e-02  3.20747355e-02 -7.66183820e-02
 -9.11083351e-02  1.89930666e-02  3.35318418e-02  5.39654259e-02
  3.25185100e-02 -2.96954763e-02 -3.19611331e-02 -3.67881019e-02
 -2.34218508e-02  9.42427913e-03  5.83452806e-03  1.01814839e-02
  4.37072770e-03  2.59436206e-03 -2.77610692e-03 -1.11794354e-02
 -4.19284757e-02 -6.83591209e-02 -4.49131889e-02 -9.29685544e-02
 -4.67970637e-02 -8.28912301e-02 -1.19611730e-01 -7.40687588e-02
 -6.24144182e-02 -1.72906508e-02 -9.30711670e-03 -9.10173574e-02
 -2.98609246e-02 -1.19051303e-03  9.27645352e-03  4.02263558e-03
  1.33333695e-02 -1.85644994e-02 -4.58799055e-02 -4.33854537e-02
 -2.96664013e-02  1.44663642e-03  5.78077840e-03  8.34771137e-03
  3.11085777e-03  8.06022705e-04  6.43940085e-03 -1.06501747e-02
 -6.57434548e-02 -1.02569006e-01 -9.30865077e-02 -7.71395817e-02
 -3.62058650e-02 -6.69911906e-02 -9.17468273e-02 -1.87070311e-02
 -1.41246569e-02 -1.95480912e-03 -7.50161122e-03 -5.78072734e-02
  2.62541211e-02 -6.41608196e-02 -5.22983788e-02 -2.44395344e-02
 -4.15596855e-02 -4.35194795e-02 -6.61530265e-02 -2.28460891e-02
  1.96429396e-02  7.38935739e-03  1.20669613e-02  8.44975492e-03
  9.37565889e-03  5.99526666e-03  3.82234793e-03  8.76135983e-03
 -4.39141271e-02 -1.08960261e-01 -1.34604861e-01 -1.27985269e-01
 -8.03178349e-02 -7.43630946e-02 -2.76942667e-02  3.85273522e-02
  4.27057314e-02  3.94026136e-02 -3.04854455e-04 -5.58231559e-02
 -4.03605403e-02 -9.26386353e-02 -2.22531192e-02 -2.74072656e-02
 -9.61290096e-02 -2.39171704e-02 -2.58910072e-02  3.50819394e-02
  3.41560021e-02  1.18791659e-02  5.16045451e-03  1.05280344e-02
  4.40255215e-03  7.05651363e-04  1.16862550e-02  1.42795306e-02
 -1.34934901e-02 -6.79352588e-02 -1.06871578e-01 -1.02768276e-01
 -5.06730336e-02 -7.34889469e-02 -3.31222942e-02  4.13504475e-02
  5.87820496e-02  6.69046628e-02 -4.79009566e-02 -1.31582993e-01
 -4.14045280e-02 -1.81724385e-02  1.07856009e-02  1.93234965e-02
 -3.66806290e-02  4.65849512e-02  3.11757753e-02  4.43369983e-02
  1.31923833e-02 -6.36049976e-03 -9.89192575e-04  5.41141369e-03
  9.31621972e-03  6.20753695e-03  1.02802308e-02  3.00288839e-02
  2.03704397e-02 -1.10676663e-02 -4.67397074e-02 -7.95100109e-02
 -6.67966633e-02 -5.86924699e-02 -3.31055108e-02 -8.52314771e-03
  2.96840020e-02  4.20361740e-02 -6.21354227e-02 -4.90367513e-02
 -2.15968878e-02 -5.42478329e-02 -1.19835399e-02  2.80895377e-02
  3.64295483e-02  4.56015324e-02  6.66904603e-02  6.32742321e-02
  2.40597429e-02  4.53055260e-03  1.34903933e-04  9.46703016e-03
  2.38932088e-03  6.85844384e-04  1.17478101e-02  3.43201539e-02
  3.90023177e-02  3.70439368e-02  1.49050183e-04 -1.45199810e-02
 -1.47167083e-02 -4.62977944e-02 -1.34162445e-02 -8.87848401e-02
 -7.96138460e-02  3.07548632e-02 -3.87689163e-02 -2.08382150e-02
  2.26845094e-02  3.93131778e-02  3.14713865e-02  1.25424333e-02
  5.25491885e-02  8.48993643e-02  8.81518076e-02  9.51880038e-02
  1.03454756e-02  1.69716896e-02  6.90211289e-03  2.98869766e-03
  7.07137634e-03  7.57325918e-03  7.60833237e-03  3.33174932e-02
  5.71254310e-02  4.68395223e-02  3.80955039e-02  5.21438957e-02
  7.48246813e-02  5.14281546e-02  1.75355154e-02 -4.99802869e-02
 -3.00879604e-02  3.08834973e-02  1.59477594e-02  8.65407899e-02
  7.92316103e-02  6.81512837e-02  7.49064403e-02  6.24142028e-02
  1.33243092e-01  1.44185908e-01  1.14403944e-01  1.26581683e-01
  2.92623025e-02  1.17620595e-02  8.28564464e-03  3.79790916e-03
  6.05489926e-03  9.41912260e-03  7.08460344e-03  3.77389514e-02
  6.51507992e-02  2.68070785e-02  6.37829103e-02  8.24859801e-02
  8.17868406e-02  9.38834773e-02  3.06973849e-02  8.43362942e-02
  1.98742416e-02  1.22491509e-01  1.78402148e-01  1.38008069e-01
  5.62354898e-02  1.08541585e-01  7.88408825e-02  7.08691709e-02
  8.12433696e-02  6.91179851e-02  1.23415542e-01  1.00873353e-01
  3.28026100e-02  1.17559388e-02  5.43258303e-03  1.91596052e-03
  3.77981805e-03  1.23442466e-03  1.56835299e-02  3.66985273e-02
  5.53582631e-02  1.03468114e-02  2.58948776e-02  6.42525228e-02
  7.80660957e-02  9.00060442e-02  4.71414960e-02  1.44152344e-01
  6.74719661e-02  1.41047818e-01  1.28037950e-01  8.57263874e-02
  6.85736372e-02  8.23987908e-02  5.46154744e-02  4.37627715e-02
  4.72476954e-02  6.14872297e-02  8.10721072e-02  7.25853484e-02
  3.06587578e-02  1.88397718e-02  1.20812573e-03  7.56359911e-03
  1.68999512e-03  3.14635817e-03  1.55603727e-02  2.82551167e-02
  4.75468793e-02  2.20115282e-02 -1.95046339e-02  4.20279265e-02
  1.04297974e-01  9.51056130e-02  9.97653377e-02  1.01174785e-01
  8.41460125e-02  1.71108874e-01  6.27360352e-02  9.21876545e-02
  1.25243027e-01  7.41443093e-02  6.83294998e-02  2.82545880e-02
  4.23262751e-02  2.98528616e-02  7.25838913e-02  5.27586398e-02
  2.80466834e-02  1.91541939e-02  4.27062558e-03  1.62418863e-03
  1.62345938e-03  5.53360872e-03  7.55117127e-03  1.83391773e-02
 -7.20353914e-04 -2.98278316e-02  2.63625653e-02  6.63606365e-02
  1.11229620e-01  1.27694281e-01  7.05272129e-02  9.97750104e-02
  1.59784670e-01  1.54999966e-01  1.19786870e-01  1.00973697e-01
  1.03239897e-01  6.32216002e-02  7.90580744e-02  4.87142517e-02
 -3.70734697e-03  1.00566096e-03  3.36257198e-02  1.85820143e-02
  1.94533590e-02  8.04133923e-03  1.65231239e-03  1.11149873e-04
  3.69853975e-03  5.69687291e-03  1.03420929e-02  5.36827357e-03
 -1.85788368e-02 -5.51316705e-03  4.09050776e-02  5.46125983e-02
  5.31780144e-02  7.83157757e-02  1.39686392e-01  8.10981816e-02
  1.03696110e-01  1.15683488e-01  7.73691691e-02  7.56021861e-02
  7.44752737e-02  7.35504077e-02  3.48056696e-02  4.07365196e-02
  6.29759726e-03 -3.28935879e-04  2.85110878e-02  1.93360523e-02
  1.13312034e-02  2.75283580e-03  2.64340175e-03  7.07530344e-03
  8.62417105e-03  8.47162106e-03  8.79028965e-03  1.12902590e-03
  5.90655230e-03  1.58609123e-02  1.07085450e-02 -4.55406241e-03
 -2.20799909e-02 -4.59049495e-02 -1.96034306e-02  1.23933079e-02
  1.37973630e-02 -2.88857804e-02 -7.01171606e-02 -3.09050101e-02
 -3.73322083e-02 -3.88190107e-02 -3.49222273e-02 -2.59750689e-02
 -1.77986652e-02 -1.55295359e-02 -9.40903297e-03  4.45796510e-03
  6.34991491e-03  3.98010269e-03  1.93680218e-03  8.05663069e-03
  3.04177677e-03  9.53709623e-03  4.71312577e-03  1.24193928e-03
  4.73956199e-03  2.57232653e-03  3.55844075e-03  9.42092861e-03
  6.86831220e-03 -1.16454493e-03 -4.10645268e-03  3.84539327e-03
  5.79537159e-03 -9.65154292e-05 -3.66825694e-03  1.34480601e-03
 -6.80355534e-03 -2.62141907e-03  2.94325845e-03 -9.34531310e-04
 -1.08777989e-04  3.32387555e-03  1.49786887e-03  3.16962950e-03
  9.29145037e-03  6.12095481e-03  9.19599582e-03  6.98900599e-03]
[ 6.31846268e-03  7.28827419e-03  3.14251090e-03  9.96521335e-03
  3.70124881e-03  6.97437290e-03  7.37816451e-03  8.45403095e-03
  8.77719323e-03  1.70968896e-03  2.79673086e-03  4.25245956e-03
  3.66495905e-03  2.14890084e-03  5.61964775e-03  9.43152680e-03
  8.91239050e-03  5.96728860e-03  9.01295938e-05  9.78474192e-03
  6.29369207e-03  8.73230497e-03  6.41984806e-03  2.37892271e-04
  4.37660001e-03  8.71901344e-03  9.13536668e-03  8.84282864e-03
  7.99580218e-03  2.05994840e-03  2.00776835e-03  8.39188970e-03
  4.17486762e-03  2.65926949e-03  6.91083586e-03  5.93475112e-03
  1.06820714e-02  1.18976914e-03  3.41759303e-04  7.59073389e-03
  2.95660134e-04  4.74797802e-03  6.05356035e-03  8.36606394e-03
  8.04242895e-03  2.59196787e-03  7.73270498e-03  1.09110301e-03
  1.31606394e-03  7.28860534e-04  7.95749561e-03  9.18562479e-03
  6.26390884e-03  5.55733183e-03  9.96773168e-04  9.73686321e-03
  4.66830830e-03  5.40425586e-03  1.08387120e-03  8.77989707e-03
  9.33360700e-03  5.35294311e-03  8.24335864e-04  4.94018915e-03
  2.95498533e-03  8.76739905e-03  1.73195775e-03 -1.90556187e-03
 -1.50014379e-02 -3.73675543e-02 -1.35830951e-02 -1.07473118e-02
 -1.27664879e-02 -9.80397283e-03 -7.27564530e-03 -5.70035983e-03
  3.88740751e-03  6.20614921e-03 -5.78217118e-04  3.74623841e-03
  1.68482174e-03  4.97172665e-03  1.92895471e-03  2.79672285e-03
  3.10719212e-03  3.61285098e-03  7.41960154e-03  4.04900822e-03
  9.43031062e-04 -2.44347117e-03  4.14651723e-03 -1.41804815e-02
 -1.94226824e-02 -3.95683599e-02 -7.12717114e-02 -8.81010227e-02
 -1.14809932e-01 -1.40876488e-01 -1.12453915e-01 -6.26165129e-02
 -8.14714570e-02 -7.03093957e-02 -4.57869014e-02 -2.32700191e-02
 -7.76296513e-03 -2.35642681e-03  1.07640915e-02  6.43060613e-03
  1.14095232e-02  4.75086680e-03  1.66594756e-03  3.98330048e-03
  1.49710321e-03  3.65285223e-03  2.66431939e-04  9.10147872e-03
  3.83121416e-03 -9.36914278e-03 -1.73809687e-02 -4.43793501e-02
 -6.54353161e-02 -9.65985710e-02 -1.38870330e-01 -2.12877485e-01
 -1.98030774e-01 -1.16945425e-01 -9.12594884e-02 -5.61738462e-02
 -5.43381113e-02  9.82058013e-04  2.11646159e-02  4.81201245e-02
  3.27484767e-02  3.17018012e-02  6.23176157e-03 -1.58480783e-03
  1.18951169e-02 -1.28431308e-03  7.01429875e-03  9.82698427e-04
  2.22109650e-03  9.79593148e-03  7.32238227e-03  8.16370624e-03
  8.48818739e-03  1.09611114e-02 -2.95835907e-02 -4.82795498e-02
  1.02758522e-02 -5.62410607e-03 -1.20249710e-01 -1.46225027e-01
 -1.35300730e-01 -8.22100439e-03 -1.38283209e-02 -1.40778662e-02
  1.33556215e-02  6.09023615e-02  5.61970354e-02 -3.89932532e-02
 -2.94321976e-02 -7.78201937e-03  3.34705304e-03  2.28204136e-03
  2.13562060e-04  6.17353123e-03  6.13187575e-03  1.03859851e-02
  3.60159048e-03  2.38751609e-03  7.05421713e-03  1.78727863e-02
  2.14022489e-02  6.11330822e-02  3.32728783e-02 -3.34601228e-02
  3.32218076e-02  1.79009733e-02  1.17013521e-02  1.23720127e-02
  3.02076821e-02 -9.08853551e-02 -1.34258609e-01 -5.84947803e-02
 -3.44025528e-02  5.61640542e-02  2.40416930e-02  4.96970113e-03
  1.26954353e-02  6.86729922e-02 -3.93419185e-02 -6.08286093e-02
 -8.07109228e-03  1.32060417e-02  1.15111184e-02  5.79229761e-03
  8.29185130e-04  4.62881122e-03  1.88593437e-02  3.63547190e-02
  4.80218396e-02  7.94985828e-02  6.05612097e-02  4.23447342e-02
  6.02055921e-02  4.99067064e-02  2.69646075e-02  2.00811906e-03
  2.89692860e-02 -1.79909067e-02 -4.47217984e-02 -1.35847378e-01
  4.94024960e-02  6.47993518e-02  4.78328317e-02 -2.78100781e-02
  1.09753483e-02  8.03236547e-03 -4.12319252e-02 -7.18674559e-02
 -7.10211616e-02  9.74182490e-04  8.59198184e-03  3.03773517e-03
  9.41790201e-03  1.35740882e-02  3.70705364e-02  4.96326963e-02
  8.50831092e-02  1.59658516e-01  1.31502536e-01  1.92110484e-01
  1.70236452e-01  8.98346918e-02  4.98455810e-02  8.57964085e-02
  1.42996752e-01 -6.27387927e-03 -2.06417753e-02 -4.09721830e-02
 -2.32932459e-02 -5.74148320e-03 -7.75263826e-02 -2.64290610e-02
  2.46203882e-02  7.18647390e-03  3.11998017e-02  1.80499012e-02
 -3.14246662e-02  1.51167436e-02 -6.89188870e-03  8.01895797e-03
  8.51088129e-03  2.39008874e-02  3.58764086e-02  6.41825139e-02
  1.63627598e-01  2.30709493e-01  1.88079057e-01  2.66920851e-01
  1.39387882e-01  1.25094234e-01  1.35549021e-01  1.48770303e-01
  2.13656373e-01  2.00657897e-01  1.91356326e-01  4.65762957e-02
  5.63523333e-02  9.92718432e-02  1.05314068e-01  6.01832190e-03
  7.19958968e-02  9.60528504e-02  1.06375582e-01  9.40512060e-02
  4.86803888e-02  4.74940394e-02  4.11954795e-03  1.03256023e-02
  7.79296212e-03  2.07795841e-02  5.32383506e-02  6.64855124e-02
  1.40305325e-01  1.87714246e-01  2.42676643e-01  2.13890068e-01
  1.78519472e-01  2.19460058e-01  2.98251384e-01  1.82743832e-01
  2.70856250e-01  5.18734395e-01  2.13282246e-01  9.30263583e-02
  6.82457861e-02  1.16387685e-01  1.65815562e-01  1.54898471e-01
  1.67285539e-01  1.60006391e-01  1.06117763e-01  1.78583742e-02
  3.03172038e-02  6.64857952e-02  2.76360360e-02  1.17958690e-03
  3.03306378e-03  2.36127819e-02  6.70938226e-02  8.95804053e-02
  1.38858049e-01  1.76625430e-01  2.21014590e-01  1.68399236e-01
  1.38187427e-01  3.24775307e-01  2.83243783e-01  3.47198440e-01
  2.90500108e-01  1.62807365e-01 -2.42330050e-02  6.86248209e-02
  2.65572645e-02  1.18332776e-01  1.63096331e-01  4.83127589e-02
 -1.17687832e-02 -1.61330971e-02  2.75436272e-02 -2.52508331e-02
 -1.14194922e-02  5.26773489e-02  3.75257453e-02  7.14188015e-03
  1.21532244e-03  2.39853430e-02  5.73110388e-02  3.31613172e-02
  2.80141025e-02  6.37409954e-02  4.44714068e-02  1.58593958e-01
  1.62109418e-01  1.35912212e-01  2.19110882e-02 -6.52154294e-02
 -1.19118118e-01 -2.72391741e-01 -2.32739775e-01 -8.06266107e-02
 -2.03750132e-02  5.81194716e-02  6.59650714e-02 -9.70256765e-02
 -1.44998062e-01 -1.50205410e-01 -3.22665764e-02 -9.16195439e-02
 -2.29198742e-02  5.39860102e-02  2.70064290e-02  8.48470392e-03
  8.54489754e-03  1.81109395e-02  4.03995229e-02 -3.49978942e-02
 -1.31826284e-01 -5.25398972e-02 -6.56467807e-02 -5.83145072e-02
 -3.46270511e-02 -1.20044400e-01 -2.37939349e-01 -2.55324042e-01
 -3.84569797e-01 -3.72978600e-01 -9.60010527e-02 -1.40617797e-01
 -1.02620401e-01  2.42273534e-03 -2.38803354e-02 -1.81419157e-01
 -4.43017775e-02 -1.26115908e-01 -1.42161360e-01 -1.36792048e-01
 -6.68556121e-03 -1.61262225e-03  1.48344994e-02  1.32222289e-02
  7.56796749e-03  1.31842117e-02  2.84190287e-02 -3.14301724e-02
 -2.03551315e-01 -1.40414866e-01 -1.96486465e-01 -2.21576054e-01
 -1.62504886e-01 -1.88114015e-01 -1.39402449e-01 -2.27292398e-01
 -3.24462553e-01 -2.39495334e-01 -3.99786683e-02 -3.13016984e-02
 -7.41838094e-02 -7.59267700e-02 -1.18645314e-01 -5.03041687e-02
 -4.52221348e-02 -6.99201538e-02 -1.54710659e-02 -3.90409478e-03
 -1.16718409e-02 -9.18403994e-03  1.04102811e-02  2.19935898e-03
  6.63296430e-03  3.12442570e-03  1.95391225e-02 -1.37422253e-02
 -1.76438606e-01 -1.74544380e-01 -1.75517224e-01 -2.32266534e-01
 -2.27000783e-01 -1.75542297e-01 -1.84947606e-01 -1.69458663e-01
 -1.28867495e-01 -1.03318590e-01 -1.24034828e-01 -6.12614325e-02
 -1.11702917e-01 -3.18275704e-02 -8.93327512e-02 -6.33380189e-02
  8.76916366e-03  2.32698935e-02  9.77270429e-02  2.68714019e-02
 -1.11876462e-02  6.62951528e-04  1.41333158e-02  9.09029131e-03
  1.12366309e-03  6.10359256e-03  8.31781884e-03 -1.43330807e-02
 -1.41401509e-01 -2.52922885e-01 -2.60945096e-01 -1.37102072e-01
 -1.38680493e-01 -1.27940805e-01 -9.60053754e-02 -1.13932506e-01
 -1.04466760e-01 -1.23454222e-01 -1.15167187e-01  1.85887719e-02
 -4.44154687e-02  1.46515380e-02 -1.61355783e-02  2.50945739e-02
 -2.59547868e-02  5.82251506e-02  4.34344884e-02 -1.51733086e-02
  8.35996542e-03  1.24186586e-02  1.63302031e-02  4.63192646e-03
  8.68340837e-03  8.26084832e-03 -8.84657363e-04 -1.05910630e-02
 -8.89112192e-02 -1.73694952e-01 -2.26013583e-01 -1.16076516e-01
 -4.32131795e-02 -1.28174186e-01 -1.22291408e-01 -6.25811698e-02
 -1.27109773e-01 -1.56530178e-02  5.15730468e-02  2.87868577e-02
 -2.50750680e-02  4.74083160e-02  7.05315725e-02 -1.67402658e-02
  5.81767641e-02  4.12279740e-02  5.41776587e-02 -1.83218653e-02
  1.74342091e-02  4.19141825e-02  1.26360464e-02  6.10024598e-03
  7.41867404e-03  9.21705131e-03  3.00805049e-03 -2.40090712e-02
 -7.04335693e-02 -5.67580996e-02 -7.48241487e-02 -4.15796017e-03
  3.09762827e-02 -1.01357187e-01 -7.16402968e-02 -9.25880469e-02
 -1.00859248e-01  1.03904757e-02  4.07439197e-02  1.23023667e-01
  4.08813597e-02  6.92031431e-02  2.43088327e-02 -7.42367583e-02
 -1.40978119e-03  2.51507365e-02  2.63454673e-02 -2.23775497e-02
  1.23539015e-02  1.39822789e-02  6.80456864e-03  9.57876312e-03
  3.48437565e-03  9.45673531e-03  1.20210749e-02 -2.20288782e-02
  5.23432938e-03 -3.10426683e-02  1.19093596e-02  5.88771076e-02
  7.54720311e-02 -3.62564184e-02 -6.93136459e-02  3.42952587e-03
  4.31759841e-03  1.74257912e-02  5.47426503e-02  4.70260979e-02
 -3.92975515e-02 -2.00684997e-02 -5.94226503e-02 -4.82109061e-02
  2.13709006e-02  3.22091206e-03 -6.31319055e-02 -3.40170205e-02
 -7.32307708e-03  1.32961845e-03  1.45706470e-02  1.29765688e-03
  2.23699162e-04  7.02368736e-03  1.65413897e-02 -6.11151654e-03
  5.38595217e-03 -1.31220643e-02  5.06265343e-02  1.17067366e-01
  1.53857431e-01  1.26120336e-02 -5.50960247e-02  3.98958866e-02
  8.50225569e-02  3.58648728e-02  6.12951783e-02  1.07652925e-01
 -4.41995640e-02  2.09450491e-02 -5.39465466e-02 -5.93080129e-03
 -1.06032063e-01 -6.33070877e-02 -7.51437511e-02  8.70796384e-03
 -1.88496786e-02 -2.63103597e-02  1.91855355e-03  3.49089000e-03
  9.19729891e-03  1.07328329e-03  1.47325650e-02 -1.08411085e-02
  1.74437568e-02 -1.73005782e-02 -5.24842317e-02 -1.94076372e-03
  1.34142548e-02  6.53361373e-02  9.73341128e-02  1.09233114e-01
  1.00410694e-01  1.16262392e-01  1.02614669e-01  8.92804246e-02
  8.03215572e-02  2.21701356e-02  8.10245315e-02 -1.11753927e-02
 -9.54669207e-02 -7.41020187e-02 -9.11338169e-03  3.39583201e-02
  2.22001579e-02 -2.39202575e-03  1.38165859e-03  4.53800026e-03
  5.28452611e-03  1.96013818e-03  8.77479921e-03 -2.21821956e-02
  8.90404292e-03  1.72724545e-02  5.33488655e-02  1.01210734e-01
  9.77888815e-02  1.14813216e-01  1.68317936e-02  2.72676949e-02
  3.66798581e-02  4.48914371e-02  5.29287319e-02  9.41654864e-02
  3.73125576e-02  9.16823681e-02  1.00913617e-01  3.00069929e-02
 -7.57441863e-02 -7.08196477e-02 -1.28291120e-02  2.35529107e-02
  2.56258699e-02  1.02454230e-02  7.53976079e-03  3.43514023e-03
  2.19796368e-03  8.95245218e-03 -1.54797161e-03 -8.85370055e-03
  2.65059030e-02  5.55398736e-02  1.73536335e-01  1.58825592e-01
  2.90574653e-02  8.78227756e-02  8.17501788e-02  1.07141120e-01
  1.99993419e-02 -1.11081673e-02 -3.15445096e-02 -5.06857488e-02
 -6.13333546e-02  4.36854258e-02  8.69081639e-02  9.80365012e-02
 -5.20742812e-03 -1.93175130e-02 -2.62956535e-02  2.56759484e-03
  2.87229494e-02  1.26159107e-02  7.87283397e-03  9.56022841e-03
  2.92027720e-03  6.94167978e-03  4.32745055e-03  1.08125530e-02
  4.31444921e-02  8.90073074e-02  1.15137454e-01  6.56617039e-02
 -4.96379583e-03 -3.95908028e-02 -1.06175725e-01 -7.19037188e-02
 -5.29003880e-02 -4.57792962e-02  3.34300405e-02  5.69589578e-02
 -2.96426128e-02  1.07495703e-01  6.66471990e-02  7.69545100e-02
 -6.55774250e-03  5.14864268e-03 -2.46872128e-02 -2.92370979e-02
  2.60157636e-02  1.30749636e-02  4.73395396e-03  5.69890004e-03
  2.60457241e-03  2.53881428e-03  2.19376528e-03  8.80864253e-03
  5.01498391e-02  3.10898613e-02  4.64393074e-02  5.59455636e-02
  7.57134958e-02  1.83546375e-02 -1.27116730e-01  3.86370858e-03
  1.63219530e-01 -1.77728013e-02 -4.97745569e-03  5.37353360e-02
  3.40665658e-02  7.15787024e-02  8.31764660e-02  6.38781024e-02
  2.16729210e-03  7.42947832e-03  9.62189640e-03  1.93764383e-03
  1.72080433e-02  1.37315093e-03  3.25859392e-04  9.63151510e-03
  9.04204450e-03  9.37162815e-03  3.30552838e-03  3.40960840e-03
 -1.43774837e-02 -6.67350338e-02 -7.37946104e-02 -1.28285334e-02
  7.99928896e-03 -9.18309863e-03 -3.69222616e-02 -2.92124904e-02
  6.44908797e-03  4.47367376e-02 -7.75152354e-03  4.73220523e-02
 -1.62254616e-02 -5.09186279e-02  1.65109656e-02  7.64079586e-02
  2.23583080e-02 -1.24551383e-02  5.54867065e-04  5.58515875e-03
  1.50627421e-03  1.02987688e-03  2.88994367e-03  7.74177599e-03
  6.89858339e-03  2.27784671e-03  8.02017543e-03  4.06691197e-03
  2.34831135e-03  9.05561240e-03  3.46525311e-03  2.99386745e-03
  9.98303724e-03  1.24825568e-02  4.61252902e-02  4.75790054e-03
 -1.23791040e-02  2.47511634e-02  5.35598295e-03 -1.25642863e-02
  3.78800117e-03  1.70677006e-02  3.82834364e-03  3.78083904e-03
  7.41688385e-03  1.19459476e-02  4.82947096e-04  1.03418119e-02
  5.79011472e-03  9.00939094e-03  6.07022809e-03  1.96423404e-03]
[ 5.31398604e-03  5.34790983e-03  7.18146904e-03  4.04281792e-04
  5.24496919e-03  5.82412208e-03  6.85331650e-03  6.18508228e-04
  3.19836681e-04  7.32431102e-03  4.56942553e-03  4.16835325e-03
  6.01459730e-03  5.19125985e-03  6.92014716e-03  8.95998403e-03
  6.69047074e-03  1.31821206e-03  6.27182617e-04  8.07995704e-04
  6.93624150e-03  5.51176978e-03  1.46548242e-03  1.82511635e-03
  9.13125917e-03  9.34228012e-03  5.51294708e-03  7.25152090e-03
  8.30487162e-03  6.42947082e-03  4.95360448e-03  8.61097148e-03
  9.36041843e-03  3.31218879e-03  9.80256020e-03  9.99494923e-03
  2.36907539e-03  5.03329127e-03  8.58995036e-03 -8.31574275e-04
  4.69268830e-03  4.26257719e-03  1.36848751e-02  1.94404095e-02
  6.71951412e-03  4.19126083e-03  4.08590165e-03  8.09251057e-03
  3.73317822e-03  2.76932153e-03  3.15615085e-03  5.22011657e-03
  2.66724971e-03  3.34174054e-03  3.66530974e-03  9.06787451e-03
  1.40817487e-03  5.41105229e-03  2.84618594e-03  8.32970801e-03
  8.67921416e-03  9.61263760e-03  5.83134271e-03  9.92909337e-04
  5.92488733e-03  3.83189452e-03  7.47668113e-03  2.02955699e-03
  3.99232454e-03  2.76477427e-02  1.75852786e-02  4.57050962e-02
  2.97213812e-02  1.78715340e-02  1.70407532e-03 -1.39864816e-05
 -1.52773403e-03 -4.16618931e-03 -9.88460765e-04 -1.28745930e-03
  3.68131700e-03  2.40545811e-03  3.35012693e-03  1.88552709e-03
  3.64396032e-03  9.25731838e-03  7.86580354e-03  3.77041222e-03
  6.13364794e-03  6.69437622e-03  3.41641062e-03  5.54887914e-03
  1.82610779e-02  3.24434965e-02  2.80848229e-02  8.96779721e-03
  4.80113166e-02  4.01253348e-02 -1.64388999e-02  1.30948820e-02
  4.18694434e-02  1.89340397e-02 -1.14029139e-03  7.45382766e-03
  9.26824918e-03 -6.31277280e-04 -5.50334402e-03  5.06075341e-03
 -1.57823616e-04  1.14226903e-02  8.01734362e-03  9.83951389e-03
  5.37160644e-03  4.65517886e-03  5.90153235e-03  5.09562517e-03
  8.30080487e-03  2.12783917e-02  3.55881878e-02  3.57745668e-02
  5.40316707e-02  5.96598099e-02  6.53405186e-02  6.11723015e-02
  7.70242888e-02  7.65144602e-02  5.80426451e-02  3.73073129e-02
  5.88547689e-02  1.20374279e-02  1.54342051e-02  1.62094610e-02
 -1.54767986e-02 -2.09980050e-02 -3.03885064e-02 -1.44233357e-02
 -4.47324505e-03  1.04662815e-02  8.42491881e-03  3.10520138e-03
  5.69473292e-03  1.08672293e-03  1.68740047e-03  7.10161185e-03
  1.92267555e-02  5.21107090e-02  5.40318253e-02  6.23334724e-02
  4.59848772e-02  3.72982535e-02 -2.19630234e-03  1.94304755e-02
  2.40425006e-02  2.15382500e-02  2.49335406e-02  1.91606921e-02
  2.02252868e-02 -4.48277636e-02 -3.75762808e-02  2.29173801e-02
 -2.06449609e-02 -7.98207602e-03 -2.83743852e-02 -3.87607670e-02
  1.76460775e-02  1.99257348e-02  1.13098411e-02  3.01765050e-03
  7.63309598e-03  7.83866950e-03  3.95773663e-03  1.88019928e-02
  1.97044933e-02  1.60982949e-02  3.84543139e-02  5.02053508e-02
  2.44777310e-02  4.24527818e-02  5.18459458e-02  7.56168548e-02
  2.87025920e-02 -2.46724829e-02 -2.76412975e-02 -3.81398150e-02
 -5.22208670e-02 -2.89541087e-02  3.70276617e-02  1.47072703e-02
  4.47980953e-02 -1.11326256e-02 -3.85113776e-02 -2.09568410e-02
 -1.39758838e-02  1.46329830e-02  1.08660892e-02  8.88935195e-04
  4.03797598e-03  5.40150265e-03  7.78223918e-03  1.50521675e-02
  3.31981668e-02  5.23859285e-03  1.95872761e-02  5.07374162e-02
  8.83830980e-03  5.11618655e-03 -2.51522902e-03 -7.25911519e-02
 -2.09839772e-02 -4.74087096e-02  8.18256093e-03 -1.75133498e-02
 -2.97363062e-03 -4.47751017e-02  6.60347086e-02  7.65451705e-02
  4.37396516e-02  5.31002373e-02  2.06424564e-02 -1.84348951e-02
 -5.25037795e-02 -1.67110403e-02  5.26487522e-03  6.53387471e-03
  3.68249630e-03  1.21535804e-02  8.58923500e-03  1.91366211e-02
  4.66685377e-02  3.33401576e-02  6.25922959e-02  8.87559206e-02
  2.68307063e-03 -5.78375494e-02  3.25395775e-02 -6.33821920e-02
 -4.05282096e-02  1.64702967e-02  9.27597794e-03  2.71091843e-02
  3.30433128e-02  7.90270019e-02  4.49072963e-02  3.06032209e-02
  3.15719970e-02 -6.32075489e-03  4.48330684e-02 -2.04260501e-02
 -5.06696196e-02 -1.26441468e-02  1.55302359e-02  1.45499015e-02
  6.84648329e-03  9.82943451e-03  1.03908107e-02  3.82775264e-02
  6.21806576e-02  5.25784415e-02  7.39287601e-02  6.21362501e-02
  5.78074009e-02  1.34775129e-02  4.61698172e-02  3.88659449e-02
  2.86457717e-02  1.11572983e-01  1.40868793e-01  1.56263395e-01
  1.23759694e-01  6.77118015e-02 -5.93310593e-02 -1.03720334e-01
 -2.82763646e-02  4.58743529e-03  1.87835357e-02 -1.29320616e-02
 -1.72977125e-02  2.91540543e-02  2.38973232e-02  4.36217938e-03
  5.36471911e-03  9.78934426e-03  1.84563611e-02  3.04570326e-02
  7.34314072e-02  4.72926270e-02  6.55496353e-02  3.98585880e-02
  2.00127399e-02  3.15401402e-02  1.79895671e-01  1.40910231e-01
  9.63438260e-02  1.70961013e-01  1.89477252e-01  8.80605826e-02
  4.88879373e-02 -4.31986077e-02 -4.76009803e-02 -4.74621623e-02
 -7.95391339e-03  1.96921462e-02  1.01944927e-02  5.26100068e-03
 -3.80628420e-03  2.21399891e-02  1.49960045e-02  5.72696051e-03
  9.88071988e-03  8.43391170e-03  2.49917353e-02  5.05255560e-02
  1.04479866e-01  5.85349432e-02  1.63006797e-02 -2.16805852e-03
 -3.60670940e-02  1.27398124e-02  1.12000284e-01  1.43008792e-01
  5.78374619e-02  1.30430497e-01  8.84570416e-02 -2.46517817e-02
 -1.06241638e-01 -1.02130788e-01 -3.53200057e-02 -6.32323461e-02
 -4.66171777e-03 -1.74845921e-03  5.18971770e-03 -1.36634940e-03
  2.18431438e-02  1.15497427e-02  2.05735979e-02  1.22975012e-02
  1.08100890e-03  6.17726682e-03  2.51344205e-02  3.81231992e-02
  6.45418622e-02  3.64181401e-02 -2.67092918e-02  2.46602654e-03
 -2.61281796e-02 -8.61102675e-03 -3.61064809e-02 -5.47148294e-02
 -1.23749107e-01 -1.72864728e-01 -1.03507980e-01 -8.88461143e-02
 -1.10542090e-01 -2.55162722e-03 -4.42037488e-02 -2.44058553e-02
 -7.98082772e-03  1.16484533e-02 -5.02812645e-02 -4.05185397e-02
 -2.18797833e-02  8.30163650e-03  1.38990522e-02  1.18984324e-02
  5.15828598e-03  1.10009142e-02  1.49536736e-02  1.55193654e-02
 -2.05811741e-02 -5.38364101e-02 -5.83707910e-02 -4.37510197e-02
 -2.71536272e-03 -1.03315410e-02 -1.37411271e-01 -9.46857934e-02
 -2.40942638e-01 -2.73021467e-01 -1.24716762e-01 -1.02925576e-01
 -9.27838674e-02 -6.61610726e-03 -1.22886814e-02 -2.79154316e-03
  3.43381553e-02  1.03766038e-02 -4.14912943e-02 -8.19102541e-02
 -3.65041010e-02  1.10108231e-02  1.14397278e-02  6.55428489e-03
  7.92204993e-03  2.29054433e-03  9.52070439e-03  1.07003771e-02
 -7.49396826e-02 -1.37733204e-01 -8.48114737e-02 -9.94263058e-02
  1.64388353e-02 -4.91243505e-02 -5.67632570e-02 -1.21680499e-01
 -2.33364649e-01 -1.32545924e-01  1.43353427e-03 -4.81724946e-02
 -2.43710680e-02  5.40655367e-02  3.70758958e-02  7.26622970e-02
  3.83757042e-04 -1.11805080e-02 -6.35807426e-02 -6.93321575e-02
 -4.65652548e-02  4.51095103e-03  1.06825944e-02  5.24538343e-03
  1.25019846e-03  3.82621761e-03  7.56514701e-03  1.43070016e-03
 -7.77606679e-02 -1.36170641e-01 -7.78996203e-02 -4.66784115e-02
 -5.55473088e-03 -1.88615911e-02 -9.64170969e-02 -1.16305387e-01
 -1.79587482e-01  6.79974773e-03  1.57037927e-01  2.60552597e-02
  2.80900047e-02  4.35080362e-02  1.78648279e-02 -1.00939646e-03
 -4.03155558e-02 -1.03652534e-01 -9.66908014e-02 -8.00371508e-02
 -2.78589437e-02 -5.16710420e-03  1.07824348e-02  4.01944800e-03
  5.67843486e-03  9.17861617e-03  2.92171155e-03  8.41387789e-03
 -4.07374037e-02 -8.71081157e-02 -8.59712570e-02 -1.07736381e-01
 -1.05172395e-01 -5.00932477e-02 -6.71235562e-02 -1.94259358e-01
 -1.67795521e-01  9.37721814e-02  1.66452216e-01  2.68317267e-02
  4.07657317e-02 -8.72758238e-03 -7.85467778e-03  1.31125650e-02
 -6.55114833e-02 -8.38631564e-02 -8.80122148e-02 -6.41982506e-02
 -1.01008592e-02  6.95909920e-03  1.92063384e-02  5.43004790e-03
  7.02714182e-03  8.47959212e-03  6.10903643e-03  2.04444263e-02
 -6.51059674e-03 -5.94263747e-02 -1.00864756e-01 -1.51170880e-01
 -1.40818544e-01 -1.21815224e-01 -1.15852094e-01 -1.06531818e-01
 -5.44306933e-02  1.66056606e-01  1.80936837e-01  7.86880499e-02
  4.35181358e-02 -2.31746863e-03 -1.59549442e-02  3.49837031e-02
  9.87940062e-03 -2.19329641e-02 -5.94408189e-02 -5.55365570e-02
  1.08056127e-02  1.34723285e-02  1.98452869e-02  6.31869631e-03
  3.69734133e-03  3.17204096e-03  7.34620378e-03  1.87300844e-02
 -8.94699523e-03 -4.84585689e-02 -1.31251166e-01 -1.39119039e-01
 -9.94365141e-02 -7.90828207e-02 -5.99367418e-02 -5.77645310e-02
 -2.68318983e-02  1.33363350e-01  6.86166495e-02  1.15573808e-01
  2.98797748e-02  6.71248502e-02  3.82891025e-02  6.95283964e-02
  7.00055652e-02  8.97485837e-03 -1.90401953e-03 -4.10139224e-02
  2.29978871e-02  2.06014631e-02  1.77759057e-02  1.30742952e-02
  9.10848532e-03  2.29604487e-03  8.79079589e-03  3.89189890e-03
 -1.38762910e-02 -9.78281755e-02 -1.11506911e-01 -8.27105634e-02
 -3.14344075e-02  2.16384557e-02 -8.29355616e-03 -5.15210623e-02
  2.43849301e-02  1.14107560e-01  1.08201022e-02  1.20025628e-01
  1.09463644e-01  9.91947610e-02  6.45349539e-02  1.20662146e-01
  3.06274062e-02 -4.82410558e-03  5.12790428e-03  2.49119397e-02
  3.77611802e-02  3.04713069e-02  1.42160676e-02  6.53488405e-03
  6.98023756e-03  3.67719680e-03  2.33339413e-04  2.75691178e-03
 -2.58401159e-02 -9.06793993e-02 -5.56933005e-02 -4.19351103e-02
 -1.58801366e-02 -2.90340424e-02  5.78691073e-02  7.23538456e-02
